-10.0000000141,-0.0999879016832,-9.90000001508,-0.199984233537,-9.80000001611,-0.299979121876,-0.399971846104,-9.70000001722,-0.499961233634,-9.60000001843,-0.599945306404,-9.50000001974,-9.40000002116,-0.699920580909,-0.799880593685,-9.30000002271,-0.899812544769,-0.999688850235,-9.2000000244,-9.10000002624,-1.09944277146,-9.00000002825,-1.19888258438,-8.90000003045,-1.29727416184,-1.3897841467,-8.80000003285,-1.44919217762,-8.70000003549,-1.51589548103,-8.60000003839,-1.61189118786,-8.50000004158,-1.71421901943,-8.40000004509,-8.30000004897,-8.20000005325,-1.82204205812,-1.94079581833,-2.06918612882,-8.10000005799,-2.18620548843,-8.00000006325,-7.90000006909,-2.29328472463,-7.8000000756,-2.39637025461,-7.70000008286,-2.4978463333,-7.60000009097,-2.59861482958,-7.50000010006,-2.69904403181,-7.40000011027,-2.79929701815,-7.30000012176,-2.8994511911,-2.99954499343,-7.20000013472,-3.09959699105,-7.10000014939,-7.00000016602,-3.1996125218,-6.90000018494,-6.80000020652,-3.29957936359,-3.39941976291,-3.49783574527,-3.52545427227,-6.70000023121,-6.60000025955,-6.5000002922,-3.600576053,-3.70020063355,-3.80010365646,-6.30000037375,-6.40000032995,-3.90006224728,-6.20000042477,-4.10002794721,-6.10000048447,-4.20001999165,-6.00000055463,-5.90000063747,-4.30001472747,-5.8000007358,-4.50000853973,-4.60000667379,-4.40001110689,-4.90000344123,-5.20000193746,-5.30000162447,-5.60000099399,-5.50000116412,-5.00000281778,-5.10000232736,-4.8000042433,-4.00004060286,-4.70000528913,-5.70000085314,-5.40000137101,
4.52499712464e-05,-0.00220793618579,-4.70928722772e-05,-0.00258568902509,4.90376152644e-05,-0.00305862667957,-0.00365997363405,5.10913600642e-05,0.00443868809474,5.32618834912e-05,-0.00546924052885,-5.5557641092e-05,5.79878373463e-05,-0.00686950222942,-0.00883550041911,-6.0562504513e-05,0.0117145165346,0.0161755964907,6.32925912028e-05,-6.6190062019e-05,-0.0236672496175,-6.92680098502e-05,-0.0379193912998,7.25407826501e-05,0.071624775963,-0.188490985381,7.60241268615e-05,0.366678057068,7.97353500007e-05,-0.197041376888,8.36935053208e-05,-0.110761032716,8.79196020418e-05,0.085557054113,-9.2436845209e-05,-9.72709099816e-05,0.00010245025608,-0.0770638806719,0.0746087198689,0.0655593714319,-0.000108006489154,-0.0524988009789,-0.000113974777165,0.000120394331469,-0.0429276111549,-0.000127308964215,-0.0360604151364,-0.000134767736083,-0.0311327032154,0.000142825711309,-0.0276569004059,-0.000151544840604,0.0253062435612,-0.000160994997104,-0.0238831604215,-0.000171255196143,-0.0233100533805,-0.0236472262484,-0.000182415036775,-0.0251737957931,0.000194576411954,-0.000207855545693,0.0286540233729,-0.000222385430097,-0.000238318753945,0.036348070625,-0.0578820364944,-0.237847852457,-0.817550401067,-0.000255831438728,-0.000275126929643,-0.000296441430518,0.0746072812593,0.0293763564184,0.0169965581603,0.000346276112127,0.000320050326597,-0.0113592231793,0.000375498238303,-0.00621811022189,0.000408165430811,0.00487789542627,0.000444811209719,-0.000486073599067,0.00392483709281,0.000532720370699,-0.0026857353368,-0.00226908163334,0.00322097980389,-0.00145391706974,0.000995851574172,0.000887769868077,0.000646092639366,0.000715349595959,0.00127363316361,0.00112295004895,-0.0016718593061,0.00820144340118,0.00193846105702,0.000585681674598,-0.00079518516703,
-0.999999998964,-6.96513381618e-08,-1.47073318151e-07,-8.24001865075e-08,7.65734055276e-08,-9.84764706431e-08,-1.19065001693e-07,5.31869160243e-08,1.45917682259e-07,4.15848497706e-08,-1.81708530189e-07,-3.4701833701e-08,3.01831343842e-08,-2.30683899262e-07,-2.99927550215e-07,-2.70199441129e-08,4.02024669556e-07,5.61282437382e-07,2.47082238571e-08,-2.29683050153e-08,-8.30441925438e-07,-2.16327331679e-08,-1.34555735548e-06,2.05953064808e-08,2.57031675221e-06,-6.83683687886e-06,1.97855842121e-08,1.33923394301e-05,1.91551799359e-08,-7.25320739909e-06,1.8669919452e-08,-4.12383816138e-06,1.83051433904e-08,3.22478708378e-06,-1.80427949011e-08,-1.78695146125e-08,1.77753940424e-08,-2.94296213588e-06,2.89118646399e-06,2.58164008628e-06,-1.77531305553e-08,-2.09829270695e-06,-1.77974366327e-08,1.79046333497e-08,-1.73958670397e-06,-1.80723648782e-08,-1.48111381759e-06,-1.82993972191e-08,-1.29601356856e-06,1.85854824449e-08,-1.16699547624e-06,-1.89312737499e-08,1.08249681408e-06,-1.93382746271e-08,-1.03584690062e-06,-1.98088235e-08,-1.02525057941e-06,-1.05495178289e-06,-2.03461056919e-08,-1.13933888933e-06,2.09541905469e-08,-2.16380967512e-08,1.31592344411e-06,-2.24038849521e-08,-2.32587805891e-08,1.69417382705e-06,-2.73867413639e-06,-1.14240467235e-05,-3.94351871153e-05,-2.42113315672e-08,-2.52716085673e-08,-2.64514545889e-08,3.64098596278e-06,1.45629675829e-06,8.56160581433e-07,2.922802855e-08,2.77647958707e-08,-5.81569874152e-07,3.08605048155e-08,-3.29144902799e-07,3.26851389506e-08,2.62654388302e-07,3.47291746477e-08,-3.70251576309e-08,2.15043625884e-07,3.96121816196e-08,-1.52503520954e-07,-1.31230737575e-07,1.79630264153e-07,-8.90324705771e-08,6.47936170799e-08,5.89904031817e-08,4.58586099665e-08,4.96460393921e-08,7.95523973886e-08,7.15720138631e-08,-1.00409640017e-07,4.26894591998e-07,1.14224776531e-07,4.25374975827e-08,-5.39870056523e-08,
-1.44915798058e-07,-7.21535089999e-08,0.999999998877,-8.53692383963e-08,1.57045945932e-07,-1.02035629066e-07,-1.23381662585e-07,8.18116205874e-08,1.51224632385e-07,5.68581726575e-08,-1.88338485738e-07,-4.44817083585e-08,3.71419355908e-08,-2.39128448171e-07,-3.10943593994e-07,-3.23258688127e-08,4.16840941143e-07,5.82039780168e-07,2.89569249389e-08,-2.64972272793e-08,-8.61261775672e-07,-2.46483499391e-08,-1.39567365588e-06,2.32316394896e-08,2.66639660086e-06,-7.09328748986e-06,2.21338207747e-08,1.38958222065e-05,2.12797868471e-08,-7.52659075729e-06,2.06179742685e-08,-4.27985548905e-06,2.01120012544e-08,3.34728934483e-06,-1.97356505069e-08,-1.94697582737e-08,1.93001947962e-08,-3.05525061378e-06,3.00204705597e-06,2.68117667411e-06,-1.92165272965e-08,-2.17961040267e-06,-1.92111216618e-08,1.92785167843e-08,-1.80732856924e-06,-1.94149939165e-08,-1.5390647049e-06,-1.96182754542e-08,-1.34696492823e-06,1.98873144921e-08,-1.21309775554e-06,-2.02221570616e-08,1.12547300107e-06,-2.06238595584e-08,-1.07717930695e-06,-2.1094438975e-08,-1.06637199972e-06,-1.09748863337e-06,-2.16368703935e-08,-1.18552743031e-06,2.22551093616e-08,-2.29541487462e-08,1.36956688131e-06,-2.37401059169e-08,-2.46203434758e-08,1.76362928929e-06,-2.85160411332e-06,-1.18978907063e-05,-4.10736074375e-05,-2.56036286698e-08,-2.67003375314e-08,-2.79227106563e-08,3.79295709573e-06,1.51746207675e-06,8.92351756168e-07,3.08047460832e-08,2.92851751653e-08,-6.06316574639e-07,3.25015283752e-08,-3.43344478943e-07,3.43993499217e-08,2.74066974936e-07,3.65265566857e-08,-3.89170280351e-08,2.24456560574e-07,4.16114719821e-08,-1.59282364254e-07,-1.37111016668e-07,1.87552882171e-07,-9.31252568406e-08,6.78569738115e-08,6.18073715342e-08,4.81198196768e-08,5.20670925746e-08,8.3242685432e-08,7.4923311586e-08,-1.04985051459e-07,4.45183256674e-07,1.19385540941e-07,4.46591022452e-08,-5.65917915406e-08,
-7.43264881666e-08,-7.47772673662e-08,1.54707100319e-07,-8.84829715653e-08,-0.999999998782,-1.05768724292e-07,-1.27909898756e-07,1.67842901797e-07,1.56792477467e-07,8.74866439858e-08,-1.95295378217e-07,-6.08383851436e-08,4.76246818934e-08,-2.47990724705e-07,-3.22506321959e-07,-3.97913863027e-08,4.32394904802e-07,6.03834091285e-07,3.46542814541e-08,-3.10634767897e-08,-8.93626574193e-07,-2.84444832787e-08,-1.4483110119e-06,2.64786020402e-08,2.76732682261e-06,-7.36272863852e-06,2.49750725175e-08,1.44248658861e-05,2.38129692425e-08,-7.81388860898e-06,2.29121491775e-08,-4.4438433668e-06,2.22176284565e-08,3.47607550278e-06,-2.16906444687e-08,-2.13033106005e-08,2.10352876767e-08,-3.17332449617e-06,3.11864806888e-06,2.78589610183e-06,-2.08716269979e-08,-2.26518451989e-06,-2.08013553347e-08,2.08165052839e-08,-1.87863379049e-06,-2.09114591889e-08,-1.60007884148e-06,-2.1082494667e-08,-1.40062287648e-06,2.13274568065e-08,-1.26166140399e-06,-2.16455534452e-08,1.17075552456e-06,-2.20372047986e-08,-1.1207416075e-06,-2.25039694568e-08,-1.10972402372e-06,-1.14234579391e-06,-2.30485000924e-08,-1.23424998855e-06,2.36745537397e-08,-2.43870332063e-08,1.42617076956e-06,-2.51920619168e-08,-2.60971059454e-08,1.8369411997e-06,-2.97084373277e-06,-1.23983778678e-05,-4.28043197033e-05,-2.71111291142e-08,-2.8244800426e-08,-2.95107572756e-08,3.95353173896e-06,1.58211384217e-06,9.30620445008e-07,3.25019852048e-08,3.09239348613e-08,-6.32494210558e-07,3.42657943027e-08,-3.5837775265e-07,3.62401433418e-08,2.86155014768e-07,3.84545329681e-08,-4.09442432255e-08,2.3443122693e-07,4.37516812366e-08,-1.66472842545e-07,-1.43351646607e-07,1.9595235513e-07,-9.74763393183e-08,7.11200932951e-08,6.48102049034e-08,5.05360108777e-08,5.46519103634e-08,8.71683303999e-08,7.84906899134e-08,-1.09846302423e-07,4.64537406004e-07,1.24865570641e-07,4.69281271971e-08,-5.93705512296e-08,
-5.0845507859e-08,-7.75301067163e-08,7.93744525271e-08,-9.17503256893e-08,-1.65304601692e-07,-1.09686531293e-07,-1.32662855947e-07,-0.999999998677,1.62637473536e-07,1.79544579016e-07,-2.0259963966e-07,-9.36417681944e-08,6.5158553919e-08,-2.57296912114e-07,-3.3465010533e-07,-5.10386929502e-08,4.48733087755e-07,6.26730986891e-07,4.26715616944e-08,-3.71875179892e-08,-9.2763440705e-07,-3.33572538738e-08,-1.50363002775e-06,3.05666500994e-08,2.87341748493e-06,-7.64599355584e-06,2.84750574046e-08,1.49811135969e-05,2.68785961289e-08,-8.11599767283e-06,2.56480712545e-08,-4.61631736585e-06,2.46979054182e-08,3.61155368487e-06,-2.39694138912e-08,-2.34212771432e-08,2.30238231102e-08,-3.29756119832e-06,3.24136587369e-06,2.89614010641e-06,-2.27554543145e-08,-2.35529721355e-06,-2.26003658747e-08,2.25470222473e-08,-1.95373977766e-06,-2.25871305001e-08,-1.66436134528e-06,-2.27149417876e-08,-1.45716957759e-06,2.29267653881e-08,-1.31285294942e-06,-2.3220638273e-08,1.21850126594e-06,-2.35960996201e-08,-1.16668632653e-06,-2.40540488327e-08,-1.15546010031e-06,-1.18968382961e-06,-2.45966689122e-08,-1.28568299141e-06,2.52274012498e-08,-2.59509656044e-08,1.48594252997e-06,-2.67734273973e-08,-2.77023044646e-08,1.91438152213e-06,-3.09684096664e-06,-1.29274128348e-05,-4.46339345195e-05,-2.8746722697e-08,-2.991762344e-08,-3.12280317896e-08,4.12332949958e-06,1.65050501525e-06,9.71118551442e-07,3.43320163272e-08,3.26933952217e-08,-6.60208250453e-07,3.61655903005e-08,-3.74307219668e-07,3.82198892822e-08,2.98969594189e-07,4.05256242353e-08,-4.31195438451e-08,2.45010505973e-07,4.60458430518e-08,-1.74106999201e-07,-1.49980970647e-07,2.04865434854e-07,-1.02106727435e-07,7.4599846564e-08,6.80148163417e-08,5.3121054692e-08,5.74149265113e-08,9.13487079318e-08,8.2292162334e-08,-1.15016373534e-07,4.85036227622e-07,1.30690248315e-07,4.93579808749e-08,-6.23383925618e-08,
-3.91435674718e-08,-8.04200825531e-08,5.43170430758e-08,-9.51809131435e-08,-8.48401280038e-08,-1.13800640083e-07,-1.37654672528e-07,-1.7678664757e-07,1.68777108966e-07,-0.999999998562,-2.10273253283e-07,-1.92241172412e-07,1.00325048764e-07,-2.67075189794e-07,-3.4741194283e-07,-6.98529792386e-08,4.65905585711e-07,6.50801129791e-07,5.47513936026e-08,-4.58062782974e-08,-9.63390929667e-07,-3.99469529844e-08,-1.56180374514e-06,3.58580253184e-08,2.98500275495e-06,-7.94398045243e-06,3.28824051544e-08,1.55663368837e-05,3.06556506609e-08,-8.433884924e-06,2.89596904771e-08,-4.79783359949e-06,2.76563708658e-08,3.75416424388e-06,-2.66542226292e-08,-2.58905810732e-08,2.53213686497e-08,-3.42836806905e-06,3.37060684534e-06,3.01227782233e-06,-2.49149928552e-08,-2.45025338246e-06,-2.46485253157e-08,2.45052584243e-08,-2.03290317619e-06,-2.44730798414e-08,-1.73213404041e-06,-2.45433862634e-08,-1.5168021098e-06,2.47103315586e-08,-1.36685262966e-06,-2.49703155334e-08,1.26888009454e-06,-2.53216423079e-08,-1.21517869133e-06,-2.57642851978e-08,-1.20374653562e-06,-1.23967684351e-06,-2.62997475109e-08,-1.34001783771e-06,2.69309929624e-08,-2.76624380306e-08,1.54910730241e-06,-2.84999933214e-08,-2.9451158862e-08,1.99624561503e-06,-3.23008259935e-06,-1.3487066479e-05,-4.65696407294e-05,-3.05251712117e-08,-3.17332126386e-08,-3.30886767642e-08,4.3030245043e-06,1.72291099721e-06,1.01401156922e-06,3.6308708074e-08,3.46075213255e-08,-6.89573679995e-07,3.82147650382e-08,-3.91201120958e-07,4.03524944759e-08,3.12566543883e-07,4.27538710698e-08,-4.54571850635e-08,2.56241300754e-07,4.85085113202e-08,-1.8221994959e-07,-1.57030080292e-07,2.14332358694e-07,-1.07039544229e-07,7.83148797558e-08,7.14388189334e-08,5.58903805648e-08,6.03721663505e-08,9.58051709421e-08,8.6347607021e-08,-1.20520529193e-07,5.06766118623e-07,1.36887447852e-07,5.19636059159e-08,-6.55120637523e-08,
-3.21548834366e-08,-8.34558628007e-08,4.18305906986e-08,-9.87850797668e-08,-5.80773198498e-08,-1.18123526967e-07,-1.42900571989e-07,-9.07645491647e-08,1.75230215416e-07,-1.89241128323e-07,-2.18339893296e-07,0.999999998435,2.06032507371e-07,-2.77355909457e-07,-3.60831700984e-07,-1.07590161689e-07,4.83966386741e-07,6.76120693939e-07,7.4960133705e-08,-5.87937968586e-08,-1.00101006327e-06,-4.92222458947e-08,-1.62301878886e-06,4.29565813104e-08,3.10244311522e-06,-8.25765850545e-06,3.85879906078e-08,1.61824475689e-05,3.54127501665e-08,-8.76859410083e-06,3.30406025556e-08,-4.98899249424e-06,3.1238088677e-08,3.90438276528e-06,-2.98573444268e-08,-2.88005312144e-08,2.80006725508e-08,-3.56618519728e-06,3.50681018512e-06,3.13470837972e-06,-2.74107286126e-08,-2.55038283858e-06,-2.69970478015e-08,2.67352857448e-08,-2.11640171219e-06,-2.66077931972e-08,-1.80363706698e-06,-2.66018730005e-08,-1.57973391204e-06,2.67086272433e-08,-1.42385572718e-06,-2.69221610989e-08,1.32207614052e-06,-2.72390436411e-08,-1.26639788076e-06,-2.76579408829e-08,-1.25476376383e-06,-1.29251382439e-06,-2.81793897917e-08,-1.39746239877e-06,2.88056530502e-08,-2.95406728391e-08,1.61590973782e-06,-3.03900745005e-08,-3.13612410636e-08,2.0828546166e-06,-3.37109821963e-06,-1.40795931487e-05,-4.86192654859e-05,-3.24634499061e-08,-3.37080703546e-08,-3.51088362124e-08,4.49335109853e-06,1.79963199436e-06,1.05948002708e-06,3.84477873857e-08,3.66821998556e-08,-7.20716027043e-07,4.0428978691e-08,-4.09134074101e-07,4.26536412748e-08,3.27006963422e-07,4.51550672858e-08,-4.79731628039e-08,2.68174987229e-07,5.11559801339e-08,-1.90850234285e-07,-1.64533137087e-07,2.24397243904e-07,-1.12300289235e-07,8.22858388675e-08,7.51017444221e-08,5.88611904601e-08,6.3541464283e-08,1.00561296293e-07,9.06790034228e-08,-1.26386593341e-07,5.29821472827e-07,1.43487830355e-07,5.47616948489e-08,-6.89101675477e-08,
-2.75243113728e-08,-8.66467824386e-08,3.43743645451e-08,-1.0257396813e-07,-4.47423270386e-08,-1.22668631648e-07,-1.48416957757e-07,-6.2154950698e-08,1.82017090286e-07,-9.71932748968e-08,-2.26825089009e-07,2.02765053327e-07,-0.999999998294,-2.8817180609e-07,-3.7495237402e-07,-2.21030911523e-07,5.02973730391e-07,7.02771869333e-07,1.15497424824e-07,-8.05231956795e-08,-1.04061475669e-06,-6.3200748083e-08,-1.68747662065e-06,5.29494800793e-08,3.22612781204e-06,-8.58807449025e-06,4.62433886422e-08,1.68315108863e-05,4.15721370202e-08,-9.12125290818e-06,3.81813494096e-08,-5.1904429616e-06,3.56527201717e-08,4.06272339927e-06,-3.37360756483e-08,-3.2273030413e-08,3.11588377123e-08,-3.71148851821e-06,3.65045105912e-06,3.26386378302e-06,-3.03218686012e-08,-2.65604271264e-06,-2.97118816733e-08,2.92930250198e-08,-2.2045362397e-06,-2.90394536398e-08,-1.87913066927e-06,-2.89325343239e-08,-1.64619638939e-06,2.8958986242e-08,-1.48407405583e-06,-2.9109652578e-08,1.37828921083e-06,-2.9378650522e-08,-1.32053842281e-06,-2.97628097997e-08,-1.30870777246e-06,-1.34840015811e-06,-3.02612873312e-08,-1.45824270272e-06,3.08753443199e-08,-3.16082051649e-08,1.6866160058e-06,-3.24650284239e-08,-3.34529435606e-08,2.17455811598e-06,-3.52046468887e-06,-1.4707449983e-05,-5.07913415969e-05,-3.45811647633e-08,-3.5861177335e-08,-3.7307004443e-08,4.69511024111e-06,1.88099567596e-06,1.10772111388e-06,4.07671475411e-08,3.89355665789e-08,-7.5377251104e-07,4.28259909555e-08,-4.28187784524e-07,4.51410632182e-08,3.42357816933e-07,4.77470252935e-08,-5.06854736106e-08,2.80867927721e-07,5.40065371987e-08,-2.00040221534e-07,-1.72527736238e-07,2.35108536915e-07,-1.17917127612e-07,8.65356302771e-08,7.90253000571e-08,6.20527096309e-08,6.69427106426e-08,1.0564316369e-07,9.5310699188e-08,-1.3264525929e-07,5.54305560086e-07,1.50525177659e-07,5.77709421444e-08,-7.25534156591e-08,
-2.424256818e-08,-9.00029058531e-08,2.943488685e-08,-1.06559594068e-07,-3.67804941758e-08,-1.27450448304e-07,-1.54221523173e-07,-4.79011469219e-08,1.89159629496e-07,-6.65815378482e-08,-2.35756379369e-07,1.04177069448e-07,-2.17467757269e-07,-2.99558205037e-07,-3.89820376678e-07,0.999999998139,5.22990505478e-07,7.30843424502e-07,2.37362057634e-07,-1.24114138553e-07,-1.08233783339e-06,-8.65904126774e-08,-1.75539494095e-06,6.80112415799e-08,3.35647757287e-06,-8.93636012784e-06,5.70216752659e-08,1.75157600425e-05,4.98377204717e-08,-9.49308100877e-06,4.48386176422e-08,-5.40288703098e-06,4.1214889146e-08,4.2297425599e-06,-3.85177616782e-08,-3.64788744465e-08,3.49284084313e-08,-3.86479327308e-06,3.80204408104e-06,3.40021211569e-06,-3.37541375531e-08,-2.76762012903e-06,-3.28793964641e-08,3.22505008363e-08,-2.2976330179e-06,-3.18292321996e-08,-1.95889718798e-06,-3.15881631536e-08,-1.71644070349e-06,3.15076411947e-08,-1.54773761511e-06,-3.15738164957e-08,1.43773637243e-06,-3.17773158663e-08,-1.3778117506e-06,-3.21123588882e-08,-1.36579169109e-06,-1.40755931136e-06,-3.25761528287e-08,-1.52260481375e-06,3.3168509576e-08,-3.38916124241e-08,1.76151603831e-06,-3.47498986514e-08,-3.57500516656e-08,2.27173714473e-06,-3.67881115207e-06,-1.53733185864e-05,-5.30951831351e-05,-3.69010754486e-08,-3.82144661051e-08,-3.97044627631e-08,4.90917669045e-06,1.96736016549e-06,1.15895051334e-06,4.32872247477e-08,4.1388409611e-08,-7.88893341717e-07,4.54260190416e-08,-4.48451848473e-07,4.78348831697e-08,3.58692605704e-07,5.0549895975e-08,-5.36144196956e-08,2.94382047935e-07,5.70807620207e-08,-2.09836561106e-07,-1.81055320338e-07,2.46519522792e-07,-1.23921228928e-07,9.10897215922e-08,8.32336609266e-08,6.54864725052e-08,7.05981441763e-08,1.11079674997e-07,1.00269719753e-07,-1.39330448668e-07,5.80331522729e-07,1.58036775503e-07,6.10123353915e-08,-7.64649183035e-08,
-2.18051110989e-08,-9.35350918751e-08,2.59350572461e-08,-1.10754925572e-07,-3.15070656646e-08,-1.32484623498e-07,-1.60333370671e-07,-3.93919491235e-08,1.96681480657e-07,-5.13318176575e-08,-2.45163514092e-07,7.13924753038e-08,-1.1177298e-07,-3.1155327034e-07,-4.05485865767e-07,2.33471401659e-07,5.44084679212e-07,7.60431329454e-07,-0.999999997967,-2.55166039121e-07,-1.12632292826e-06,-1.33515876432e-07,-1.82700923143e-06,9.32161336679e-08,3.49394761377e-06,-9.30374023758e-06,7.3269200215e-08,1.8237612372e-05,6.14767445247e-08,-9.88539888953e-06,5.37737754488e-08,-5.6270849901e-06,4.8419217784e-08,4.40604303286e-06,-4.45435909552e-08,-4.16649169642e-08,3.94950910363e-08,-4.0266578425e-06,3.96214718495e-06,3.54426110398e-06,-3.78518587777e-08,-2.8855351899e-06,-3.66148731275e-08,3.57020134869e-08,-2.39604624968e-06,-3.50558897576e-08,-2.04324327938e-06,-3.46357607266e-08,-1.79073976964e-06,3.44125198858e-08,-1.61509644337e-06,-3.43654705649e-08,1.50065371375e-06,-3.44802125566e-08,-1.43844794247e-06,-3.47472314184e-08,-1.42624756508e-06,-1.47023471966e-06,-3.51609584095e-08,-1.59081693861e-06,3.57191371561e-08,-3.64224368166e-08,1.84092604877e-06,-3.72742187577e-08,-3.8280450324e-08,2.37480753515e-06,-3.84682466876e-06,-1.60801294067e-05,-5.55409704914e-05,-3.94497237626e-08,-4.07933924751e-08,-4.23258041087e-08,5.13650709359e-06,2.05911740861e-06,1.21340446816e-06,4.60314467149e-08,4.40646501713e-08,-8.26243187729e-07,4.82521580338e-08,-4.70024664544e-07,5.0758014237e-08,3.76092130289e-07,5.35865562803e-08,-5.6782983248e-08,3.08785493101e-07,6.04018877187e-08,-2.20290705163e-07,-1.90161654423e-07,2.58688902304e-07,-1.30347154204e-07,9.5976490002e-08,8.77538143027e-08,6.91866724203e-08,7.45326870332e-08,1.16902927819e-07,1.05586126143e-07,-1.46479718538e-07,6.08023504169e-07,1.66063851353e-07,6.45095073743e-08,-8.06705208478e-08,
-1.99317116105e-08,-9.72550697934e-08,2.33364122565e-08,-1.15173970781e-07,-2.77715452147e-08,-1.37788063129e-07,-1.66773146838e-07,-3.37570897178e-08,2.04608204694e-07,-4.22294473279e-08,-2.55078660651e-07,5.50620689537e-08,-7.66274646708e-08,-3.24198276787e-07,-4.22003095382e-07,1.20044591981e-07,5.66329799776e-07,7.91639450208e-07,-2.50912077097e-07,0.999999997775,-1.17272553112e-06,-2.74600598447e-07,-1.90257447753e-06,1.43787489055e-07,3.63903099022e-06,-9.69154180126e-06,1.0046135419e-07,1.89996873002e-05,7.90241414798e-08,-1.02996377224e-05,6.63575913324e-08,-5.86386110553e-06,5.80902546981e-08,4.59227855007e-06,-5.23499028565e-08,-4.82016421242e-08,4.51273032687e-08,-4.19768802459e-06,4.13136594033e-06,3.69656208941e-06,-4.2817241538e-08,-3.01024429683e-06,-4.10756935413e-08,3.97734852665e-08,-2.50016091785e-06,-3.88225874456e-08,-2.13250239637e-06,-3.81616145863e-08,-1.86939048699e-06,3.77471342286e-08,-1.68642268146e-06,-3.75482786374e-08,1.56729832317e-06,-3.75432887399e-08,-1.50269767168e-06,-3.77172570218e-08,-1.49032834907e-06,-1.53669190427e-06,-3.80606223138e-08,-1.66317178912e-06,3.85681716138e-08,-3.92383898988e-08,1.92519135674e-06,-4.00730602712e-08,-4.10770501612e-08,2.48422369204e-06,-4.02525654617e-06,-1.68310891932e-05,-5.8139846218e-05,-4.22582531627e-08,-4.36276644181e-08,-4.51995828425e-08,5.37814911007e-06,2.15669698069e-06,1.27134211594e-06,4.90267812259e-08,4.69919418966e-08,-8.66002832832e-07,5.1330890735e-08,-4.93014468151e-07,5.39366362851e-08,3.94645361499e-07,5.68830575009e-08,-6.02172562969e-08,3.24153381347e-07,6.39962144947e-08,-2.31459501144e-07,-1.99897367949e-07,2.71681455762e-07,-1.37233305649e-07,1.01227625038e-07,9.26159562043e-08,7.31805544834e-08,7.87743448031e-08,1.23148641347e-07,1.11293429093e-07,-1.5413473657e-07,6.37517922812e-07,1.74652075519e-07,6.82891412361e-08,-8.51992030587e-08,
-1.84543130217e-08,-1.01175521899e-07,2.1339893808e-08,-1.19831881036e-07,-2.49987782195e-08,-1.43379054331e-07,-1.735631878e-07,-2.97665746249e-08,2.1296746261e-07,-3.62030212807e-08,-2.65536632945e-07,4.53161714716e-08,-5.91229993185e-08,-3.37537908817e-07,-4.3943081605e-07,8.23307281475e-08,5.89805522116e-07,8.24580311057e-07,-1.29063214198e-07,2.69943008283e-07,-1.22171414367e-06,0.999999997562,-1.98236707879e-06,2.95843401075e-07,3.79226231491e-06,-1.01012040427e-05,1.55024762173e-07,1.98048263381e-05,1.08395001398e-07,-1.07373503449e-05,8.53318901681e-08,-6.11410999276e-06,7.17125674154e-08,4.78915888127e-06,-6.28309227053e-08,-5.6671470452e-08,5.2227904723e-08,-4.37854179555e-06,4.31035836341e-06,3.85771446301e-06,-4.89425865447e-08,-3.14224386293e-06,-4.64823783455e-08,4.46367871837e-08,-2.61039594552e-06,-4.32670527379e-08,-2.22703755764e-06,-4.22787504377e-08,-1.95271623318e-06,4.16061862228e-08,-1.76201288692e-06,-4.12030578331e-08,1.63795050003e-06,-4.10366569107e-08,-1.57083439179e-06,-4.10841594543e-08,-1.55831013792e-06,-1.60722084774e-06,-4.13302180397e-08,-1.73998924272e-06,4.17653519329e-08,-4.23849017199e-08,2.01468957278e-06,-4.31883488652e-08,-4.41789210305e-08,2.60048284874e-06,-4.21492948472e-06,-1.7629711993e-05,-6.09040232237e-05,-4.53634060479e-08,-4.67521334493e-08,-4.83591290533e-08,5.6352517183e-06,2.26057038626e-06,1.33304813761e-06,5.23044164194e-08,5.02024040056e-08,-9.08371063435e-07,5.46927129162e-08,-5.17540507211e-07,5.74007849653e-08,4.1445042667e-07,6.04691807142e-08,-6.39469693987e-08,3.40568653367e-07,6.78936191519e-08,-2.43405875788e-07,-2.10318577953e-07,2.85568797542e-07,-1.44622437883e-07,1.06878604114e-07,9.78539590869e-08,7.74989003405e-08,8.33546767572e-08,1.29856654073e-07,1.17429070942e-07,-1.62341819691e-07,6.68964926385e-07,1.83852141577e-07,7.23814608761e-08,-9.008354563e-08,
-1.72660389008e-08,-1.05310175807e-07,1.97661614824e-08,-1.24745056357e-07,-2.28693501833e-08,-1.4927739835e-07,-1.80727684338e-07,-2.6805537287e-08,2.21789217036e-07,-3.19363718834e-08,-2.76575152413e-07,3.88650830522e-08,-4.86781403144e-08,-3.51620592243e-07,-4.57832713971e-07,6.35493237145e-08,6.14598219092e-07,8.59375957381e-07,-8.8552063866e-08,1.38908823718e-07,-1.27347157136e-06,2.90736566875e-07,-2.06668697784e-06,-0.999999997325,3.95422190528e-06,-1.05342896656e-05,3.1909392453e-07,2.06561153572e-05,1.67335484537e-07,-1.12002234973e-05,1.17094800547e-07,-6.37880372261e-06,9.22556157854e-08,4.99745551937e-06,-7.75965197727e-08,-6.80454135243e-08,6.14302305506e-08,-4.56993462999e-06,4.4998402943e-06,4.02837062119e-06,-5.66665777329e-08,-3.28207446769e-06,-5.3153682372e-08,5.05327757951e-08,-2.72720774356e-06,-4.85773060458e-08,-2.32724445419e-06,-4.71380711064e-08,-2.04106966553e-06,4.61137207122e-08,-1.84219063391e-06,-4.54339224926e-08,1.71291623958e-06,-4.5049319484e-08,-1.64315678694e-06,-4.49252900414e-08,-1.63049467982e-06,-1.68213866793e-06,-4.50379727529e-08,-1.82161933126e-06,4.53716757881e-08,-4.5917173952e-08,2.1098341816e-06,-4.66706095494e-08,-4.76327944234e-08,2.72412986009e-06,-4.41674564327e-06,-1.8479854192e-05,-6.3846907172e-05,-4.8808827013e-08,-5.02079407381e-08,-5.18435588096e-08,5.90907688906e-06,2.37125594493e-06,1.39883576076e-06,5.59005833467e-08,5.37335354418e-08,-9.53566807667e-07,5.83729041326e-08,-5.43734384894e-07,6.11850548968e-08,4.35615741679e-07,6.43791000115e-08,-6.80061148626e-08,3.58123058042e-07,7.21281522596e-08,-2.56199613582e-07,-2.21487606597e-07,3.00430243873e-07,-1.52562258389e-07,1.12969240623e-07,1.03505918783e-07,8.21765823231e-08,8.83093437928e-08,1.37071497573e-07,1.24034985398e-07,-1.71152564378e-07,7.02530043647e-07,1.93720432071e-07,7.68208068445e-08,-9.53602728132e-08,
-1.62957252564e-08,-1.0967390467e-07,1.85011705627e-08,-1.29931271915e-07,-2.11917055379e-08,-1.55504558708e-07,-1.88292863808e-07,-2.45324889199e-08,2.31105963756e-07,-2.87715412105e-08,-2.88235135844e-07,3.42990723622e-08,-4.17659421263e-08,-3.66498867456e-07,-4.77277903049e-07,5.23444373533e-08,6.4080164641e-07,8.96158902155e-07,-6.83800542769e-08,9.53472329627e-08,-1.32819635409e-06,1.49671564502e-07,-2.15586003366e-06,-3.13486363865e-07,4.12554040708e-06,-1.09924973955e-05,-0.999999997061,2.15569094782e-05,3.44578126024e-07,-1.1690091492e-05,1.80841656287e-07,-6.65899975607e-06,1.26648830174e-07,5.21800803696e-06,-9.98669615374e-08,-8.40716715966e-08,7.37901704017e-08,-4.77264544959e-06,4.70059141321e-06,4.20924151738e-06,-6.66789146757e-08,-3.43032550709e-06,-6.15680585111e-08,5.78096325565e-08,-2.85109418145e-06,-5.50168442233e-08,-2.43355493384e-06,-5.29456063464e-08,-2.13483585623e-06,5.14353656356e-08,-1.92730942292e-06,-5.03772517017e-08,1.79253002305e-06,-4.96959521051e-08,-1.71999153791e-06,-4.93388671352e-08,-1.70721220253e-06,-1.76179263264e-06,-4.92694057315e-08,-1.90844562051e-06,4.94627142089e-08,-4.99029014249e-08,2.2110785948e-06,-5.0581233728e-08,-5.14949824066e-08,2.85576262751e-06,-4.63169576996e-06,-1.93857542233e-05,-6.69832351939e-05,-5.26467184887e-08,-5.40439539921e-08,-5.56990471357e-08,6.20101282514e-06,2.48932432836e-06,1.46905017551e-06,5.98575906486e-08,5.76293521056e-08,-1.00183157375e-06,6.24124562189e-08,-5.71741591024e-07,6.53294766891e-08,4.58261303858e-07,6.86521944927e-08,-7.24337180821e-08,3.76918269299e-07,7.67387643064e-08,-2.69918259537e-07,-2.3347380696e-07,3.16353808065e-07,-1.61106127142e-07,1.19544333061e-07,1.0961480212e-07,8.72532463051e-08,9.36787730638e-08,1.44843073151e-07,1.31158255993e-07,-1.80624576615e-07,7.38396065534e-07,2.04319788204e-07,8.16463368315e-08,-1.01070909704e-07,
-1.54941786677e-08,-1.1428284209e-07,1.74689801854e-08,-1.3540981292e-07,-1.98440417813e-08,-1.62083827455e-07,-1.96287194825e-07,-2.27426473033e-08,2.40952978689e-07,-2.63431386907e-08,-3.00561015278e-07,3.09134414877e-08,-3.68750369173e-08,-3.82229803947e-07,-4.9784147345e-07,4.49310165455e-08,6.68517694971e-07,9.35073194933e-07,-5.63477180831e-08,7.36590944286e-08,-1.38610437687e-06,1.02779149431e-07,-2.25024067527e-06,-1.61452855267e-07,4.30690396581e-06,-1.1477676002e-05,-3.38411295947e-07,2.25108608784e-05,-0.999999996765,-1.22089515015e-05,3.72550807503e-07,-6.95584983112e-06,1.95681333875e-07,5.45173119477e-06,-1.37156847123e-07,-1.08247176228e-07,9.12087778379e-08,-4.98752328258e-06,4.91346197864e-06,4.40110288011e-06,-8.0129452678e-08,-3.58764041585e-06,-7.24776819329e-08,6.69899490016e-08,-2.98259904692e-06,-6.29665738008e-08,-2.54644091034e-06,-5.99900928005e-08,-2.2344358275e-06,5.77972703487e-08,-2.01775596876e-06,-5.62151713706e-08,1.87715796499e-06,-5.51267825383e-08,-1.80169643142e-06,-5.44514357762e-08,-1.78882460388e-06,-1.84656356201e-06,-5.41331112509e-08,-2.00088902329e-06,5.41332139609e-08,-5.44259862617e-08,2.31892073121e-06,-5.49955371646e-08,-5.58339362195e-08,2.99603824003e-06,-4.86086955697e-06,-2.03520776498e-05,-7.03292334414e-05,-5.69400107407e-08,-5.83186466407e-08,-5.99804682672e-08,6.51258901373e-06,2.61540487333e-06,1.54407243195e-06,6.42251219841e-08,6.19418361537e-08,-1.05343223616e-06,6.68592570752e-08,-6.01723260251e-07,6.98805851242e-08,4.82520177027e-07,7.33340421776e-08,-7.72747612114e-08,3.97067178103e-07,8.17701874911e-08,-2.8464816184e-07,-2.46354527403e-07,3.33437349467e-07,-1.7031386651e-07,1.26654430817e-07,1.16229205102e-07,9.277411438e-08,9.9508939038e-08,1.53227438813e-07,1.38851889846e-07,-1.90822318925e-07,7.76765204648e-07,2.15720411345e-07,8.69028624353e-08,-1.07262542939e-07,
-1.48263336516e-08,-1.19154508665e-07,1.66171053874e-08,-1.41201625889e-07,-1.87452621355e-08,-1.69040509654e-07,-2.0474161264e-07,-2.13058213948e-08,2.51368606408e-07,-2.4432054887e-08,-3.13601097628e-07,2.83168361669e-08,-3.32499109864e-08,-3.98875459791e-07,-5.19605102558e-07,3.96870994956e-08,6.97857223385e-07,9.76275608185e-07,-4.83888234289e-08,6.07248260344e-08,-1.44743066319e-06,7.94357843257e-08,-2.35021486814e-06,-1.10918605853e-07,4.49906001482e-06,-1.19918399846e-05,-1.74367225359e-07,2.35219499368e-05,-3.65758436537e-07,-1.27589806817e-05,-0.999999996434,-7.27060990803e-06,4.03301175287e-07,5.69962292032e-06,-2.12011198154e-07,-1.48732322422e-07,1.17488841417e-07,-5.21549473774e-06,5.13938039668e-06,4.6048022125e-06,-9.90885310533e-08,-3.75472253637e-06,-8.71366887025e-08,7.88953749962e-08,-3.12231706833e-06,-7.29982668228e-08,-2.66641877648e-06,-6.86889626506e-08,-2.34033052973e-06,6.55163850165e-08,-2.11395389637e-06,-6.31963507432e-08,1.96720135998e-06,-6.15424341728e-08,-1.88866387576e-06,-6.04287972008e-08,-1.87572905638e-06,-1.9368696793e-06,-5.97690226501e-08,-2.09941212173e-06,5.95034965647e-08,-5.95916185807e-08,2.43390820969e-06,-6.00068671289e-08,-6.07336338434e-08,3.14567994401e-06,-5.10546740474e-06,-2.13839684549e-05,-7.39027964031e-05,-6.1765202715e-08,-6.31025152897e-08,-6.47534886293e-08,6.84549337657e-06,2.75019278275e-06,1.62432389278e-06,6.90618610975e-08,6.67327724577e-08,-1.1086642225e-06,7.17695536807e-08,-6.3385818986e-07,7.48927538188e-08,5.08540199269e-07,7.84776471145e-08,-8.25813306315e-08,4.18695384552e-07,8.72740025055e-08,-3.00485671236e-07,-2.60216217396e-07,3.51789899862e-07,-1.8025271754e-07,1.34356737565e-07,1.23404268075e-07,9.87909558337e-08,1.05852302552e-07,1.62287736695e-07,1.47175726651e-07,-2.01818103478e-07,8.17861566994e-07,2.28000903706e-07,9.26418613603e-08,-1.13988748099e-07,
-1.42665626465e-08,-1.24307953284e-07,1.59081431282e-08,-1.47329489814e-07,-1.7839319092e-08,-1.76402130522e-07,-2.13689773552e-07,-2.01353185315e-08,2.62394572224e-07,-2.2898979534e-08,-3.27407961298e-07,2.62745966701e-08,-3.04710017791e-08,-4.16503403668e-07,-5.42657740867e-07,3.58019052966e-08,7.28940996047e-07,1.01993697161e-06,-4.27609328119e-08,5.21715542543e-08,-1.5124313834e-06,6.55171483988e-08,-2.45620343811e-06,-8.57658686356e-08,4.70282375013e-06,-1.25371871829e-05,-1.19845703065e-07,2.45945201855e-05,-1.88544198809e-07,-1.33425553782e-05,-3.95807491468e-07,-7.60465134958e-06,-0.999999996063,5.96277325632e-06,-4.37157160182e-07,-2.30009278252e-07,1.61504333068e-07,-5.45757240104e-06,5.37936172709e-06,4.82126664956e-06,-1.27697453644e-07,-3.9323417288e-06,-1.07803060313e-07,9.48958296222e-08,-3.27089956302e-06,-8.60108567694e-08,-2.79405436313e-06,-7.96688043587e-08,-2.4530253261e-06,7.50509573033e-08,-2.21636791857e-06,-7.16693543348e-08,2.06310069376e-06,-6.92168825928e-08,-1.98132487626e-06,-6.74923980147e-08,-1.96836209015e-06,-2.03317097218e-06,-6.63604973657e-08,-2.20452406949e-06,6.57286191206e-08,-6.55334026528e-08,2.55664425429e-06,-6.57322822412e-08,-6.62981882985e-08,3.30548507646e-06,-5.36681381958e-06,-2.24871075273e-05,-7.77236914519e-05,-6.72161731532e-08,-6.84812813888e-08,-7.00972988935e-08,7.20159185202e-06,2.89445735399e-06,1.71027133049e-06,7.4437578034e-08,7.20761129282e-08,-1.16785517149e-06,7.72098050888e-08,-6.68345161994e-07,8.04298716593e-08,5.36485958557e-07,8.41449627208e-08,-8.84140138506e-08,4.4194291741e-07,9.33099523552e-08,-3.1753855154e-07,-2.75155733494e-07,3.71533203009e-07,-1.90998457319e-07,1.42716189085e-07,1.31202754328e-07,1.05363273917e-07,1.12768956402e-07,1.72095285825e-07,1.56197518289e-07,-2.13693253404e-07,8.61933990495e-07,2.4124948734e-07,9.89227198681e-08,-1.21310691605e-07,
-1.37957221019e-08,-1.29763912414e-07,1.53147567759e-08,-1.53818206578e-07,-1.70862768043e-08,-1.84198662742e-07,-2.23168338558e-07,-1.91712407565e-08,2.74076339316e-07,-2.16511691847e-08,-3.42038910772e-07,2.46375325075e-08,-2.82867501635e-08,-4.3518729011e-07,-5.67096380367e-07,3.28252051104e-08,7.61900731118e-07,1.0662436641e-06,-3.85930487937e-08,4.61254714177e-08,-1.58138611249e-06,5.63154518162e-08,-2.56866580307e-06,-7.07714944378e-08,4.91908541855e-06,-1.31161185423e-05,-9.27123460383e-08,2.57333175483e-05,-1.29650961122e-07,-1.39622727339e-05,-2.04130501485e-07,-7.95947347823e-06,-4.28875899506e-07,6.24237444685e-06,0.999999995645,-4.7449248058e-07,2.49878777086e-07,-5.71486428506e-06,5.63451726747e-06,5.05151183342e-06,-1.75620352101e-07,-4.12134182478e-06,-1.38993652304e-07,1.17457900505e-07,-3.42906082581e-06,-1.03503237764e-07,-2.92996856121e-06,-9.39148121248e-08,-2.57307507602e-06,8.7088862301e-08,-2.32550856956e-06,-8.21381403799e-08,2.16534018555e-06,-7.85341601939e-08,-2.0801535444e-06,-7.5944667581e-08,-2.06720422662e-06,-2.13597415437e-06,-7.41524647902e-08,-2.31678616982e-06,7.30117976428e-08,-7.24235433954e-08,2.68779440676e-06,-7.2320473361e-08,-7.26581661587e-08,3.4763340951e-06,-5.64637270361e-06,-2.36677795013e-05,-8.18137927032e-05,-7.34093172933e-08,-7.45601527232e-08,-7.61082078542e-08,7.58295081649e-06,3.04905142596e-06,1.80243278554e-06,8.04358122104e-08,7.80610681466e-08,-1.23136913928e-06,8.32590485875e-08,-7.05405630741e-07,8.65674475768e-08,5.66541073683e-07,9.04088029027e-08,-9.48436521184e-08,4.66966233339e-07,9.99475651953e-08,-3.35927607375e-07,-2.91281851357e-07,3.92803506278e-07,-2.02636724759e-07,1.51806734049e-07,1.39696355095e-07,1.1255973305e-07,1.20327986929e-07,1.82730878308e-07,1.65994211339e-07,-2.26539468275e-07,9.09259321943e-07,2.55565435228e-07,1.05814246975e-07,-1.29298460029e-07,
-1.33992606176e-08,-1.35544985383e-07,1.48165330077e-08,-1.60694812821e-07,-1.64569556756e-08,-1.92462792454e-07,-2.33217292094e-07,-1.83709154481e-08,2.86463502987e-07,-2.06245551959e-08,-3.57556472257e-07,2.33063357278e-08,-2.65372335421e-08,-4.55007514136e-07,-5.9302691531e-07,3.04870409085e-08,7.96880278796e-07,1.11539929211e-06,-3.54015114051e-08,4.16499243067e-08,-1.65460036421e-06,4.98133836537e-08,-2.68810416694e-06,-6.08614641062e-08,5.1488185062e-06,-1.37312603581e-05,-7.65407753206e-08,2.69435345311e-05,-1.0034651076e-07,-1.46209749819e-05,-1.4043712302e-07,-8.33671772272e-06,-2.21292667294e-07,6.5397322784e-06,4.65324960122e-07,0.999999995175,5.15732567843e-07,-5.9885844926e-06,5.90606536938e-06,5.29665192269e-06,-2.7185129475e-07,-4.32264905347e-06,-1.91248943975e-07,1.51515685173e-07,-3.59758534672e-06,-1.28174162586e-07,-3.07484367013e-06,-1.13069684937e-07,-2.70108987818e-06,1.02711684092e-07,-2.44193755842e-06,-9.53592104288e-08,2.2744529419e-06,-9.00495091803e-08,-2.18567221309e-06,-8.62095239432e-08,-2.17278524358e-06,-2.24583830505e-06,-8.34794225851e-08,-2.43681822784e-06,8.16244801968e-08,-8.04877445552e-08,2.82809419618e-06,-7.99631316783e-08,-7.99794571097e-08,3.65920090803e-06,-5.94576484785e-06,-2.49329493275e-05,-8.6197349025e-05,-8.04906477475e-08,-8.14696176284e-08,-8.29044609322e-08,7.99186279494e-06,3.21492221957e-06,1.90138430864e-06,8.71573568119e-08,8.47961584993e-08,-1.29961145484e-06,9.0011940835e-08,-7.45286828681e-07,9.33953090891e-08,5.98910844829e-07,9.73552603046e-08,-1.01953546712e-07,4.93940541925e-07,1.07268165836e-07,-3.5578859595e-07,-3.08717046175e-07,4.15753642017e-07,-2.15264585922e-07,1.61712883911e-07,1.48967253344e-07,1.20459933314e-07,1.28609164032e-07,1.94286319045e-07,1.76653483725e-07,-2.40460441414e-07,9.60146201246e-07,2.71060758178e-07,1.13396554904e-07,-1.38032675828e-07,
-1.30659422271e-08,-1.41675835396e-07,1.43979669367e-08,-1.67988820649e-07,-1.59295786287e-08,-2.0123020336e-07,-2.43880299071e-07,-1.77031719634e-08,2.99610237701e-07,-1.97734930016e-08,-3.74028967039e-07,2.22123943366e-08,-2.51160073887e-08,-4.76051939517e-07,-6.20565112581e-07,2.86158114817e-08,8.34036947032e-07,1.1676265801e-06,-3.28963588931e-08,3.82247967869e-08,-1.73240844274e-06,4.50025996662e-08,-2.81506824777e-06,-5.38615844693e-08,5.3930889632e-06,-1.4385489349e-05,-6.58559651756e-08,2.82308600326e-05,-8.28849694894e-08,-1.53217768753e-05,-1.08749346529e-07,-8.73818359181e-06,-1.52320845418e-07,6.85627890858e-06,2.40220482042e-07,5.05565702451e-07,-0.999999994644,-6.28006525051e-06,6.19534365683e-06,5.55791092212e-06,-5.61364563098e-07,-4.53728158527e-06,-2.96192347173e-07,2.08583436676e-07,-3.7773359931e-06,-1.65422283327e-07,-3.22943060298e-06,-1.40091224471e-07,-2.83774160149e-06,1.23722911289e-07,-2.56627386302e-06,-1.1252217684e-07,2.39102681745e-06,-1.04596556041e-07,-2.29845727216e-06,-9.88999857357e-08,-2.28569017967e-06,-2.36338130348e-06,-9.4810322379e-08,-2.56530580487e-06,9.19374608367e-08,-9.00275345146e-08,2.97835789824e-06,-8.89115055338e-08,-8.84759387674e-08,3.8551646888e-06,-6.26678798505e-06,-2.62903501961e-05,-9.09012919382e-05,-8.86456960496e-08,-8.93733670378e-08,-9.06327137318e-08,8.43087605297e-06,3.39312384245e-06,2.00776773962e-06,9.47248538894e-08,9.24146406736e-08,-1.37303432985e-06,9.75827234852e-08,-7.88265377894e-07,1.01021068827e-07,6.33825338421e-07,1.05086779889e-07,-1.09842206788e-07,5.23062518319e-07,1.15367405899e-07,-3.77274475039e-07,-3.27599595337e-07,4.40555478469e-07,-2.2899240623e-07,1.72531569421e-07,1.59110036687e-07,1.29156581878e-07,1.37704994339e-07,2.06866275134e-07,1.88275583765e-07,-2.55573772969e-07,1.01493944763e-06,2.87862189635e-07,1.21763383396e-07,-1.47606466337e-07,
-1.27869926687e-08,-1.48183412544e-07,1.40470906215e-08,-1.75732486059e-07,-1.54876006527e-08,-2.10539906612e-07,-2.55205107896e-07,-1.71447495261e-08,3.13575800436e-07,-1.90646549088e-08,-3.91531142154e-07,2.13068611774e-08,-2.39495469239e-08,-4.98416724397e-07,-6.49837705056e-07,2.70973155906e-08,8.73542994154e-07,1.2231694975e-06,-3.08932731522e-08,3.55382868401e-08,-1.81517666398e-06,4.13231978534e-08,-2.95016060422e-06,-4.8685086183e-08,5.65306561892e-06,-1.5081960974e-05,-5.83118906879e-08,2.96015356117e-05,-7.13515330349e-08,-1.60680966644e-05,-8.9872210263e-08,-9.16584671718e-06,-1.18012881836e-07,7.19358736003e-06,1.6543505664e-07,2.61129889832e-07,-5.50068154158e-07,-6.59077053564e-06,6.50382288175e-06,5.83663552815e-06,0.999999994043,-4.76636035229e-06,-6.11945544437e-07,3.2320636754e-07,-3.96926329853e-06,-2.27846085711e-07,-3.3945570774e-06,-1.80896323408e-07,-2.98377130351e-06,1.53369917531e-07,-2.69920066288e-06,-1.35610612567e-07,2.51571109707e-06,-1.2348611459e-07,-2.41914580431e-06,-1.14936390952e-07,-2.40656618411e-06,-2.48928719086e-06,-1.08823302857e-07,-2.70300852655e-06,1.04470568773e-07,-1.01454826837e-07,3.13948858209e-06,-9.9501326167e-08,-9.84279976906e-08,4.06542344856e-06,-6.61143984788e-06,-2.77485847687e-05,-9.59555902591e-05,-9.81137023656e-08,-9.84794549173e-08,-9.94770082843e-08,8.90282870613e-06,3.5848317268e-06,2.12229972118e-06,1.03288943966e-07,1.01081844135e-07,-1.45214337259e-06,1.06110440035e-07,-8.34651498705e-07,1.09574639107e-07,6.71542994839e-07,1.13726130844e-07,-1.18626904278e-07,5.54553486778e-07,1.2435845687e-07,-4.00558047139e-07,-3.48086053407e-07,4.67402789588e-07,-2.43946079777e-07,1.84374401614e-07,1.70234014584e-07,1.38758205662e-07,1.47723265801e-07,2.20590486705e-07,2.00975556066e-07,-2.72013253045e-07,1.07402515866e-06,3.06113552568e-07,1.31025029689e-07,-1.58127879082e-07,
-1.25554863069e-08,-1.55097205785e-07,1.37545619559e-08,-1.83961111626e-07,-1.51182689715e-08,-2.20434609898e-07,-2.67244003359e-07,-1.66779909103e-08,3.28425094649e-07,-1.84731845483e-08,-4.10144891813e-07,2.05540666224e-08,-2.29855051662e-08,-5.22207250077e-07,-6.80983621205e-07,2.58526866874e-08,9.1558731755e-07,1.28229566465e-06,-2.92696020496e-08,3.33922212511e-08,-1.90330699046e-06,3.84395182857e-08,-3.09404266418e-06,-4.47285605432e-08,5.93003196086e-06,-1.5824141465e-05,-5.27359368425e-08,3.10624191639e-05,-6.32117834055e-08,-1.68636911697e-05,-7.74079716672e-08,-9.6218792992e-06,-9.75800158165e-08,7.55338795505e-06,1.28241999906e-07,1.79931370296e-07,-2.8426810813e-07,-6.92231153728e-06,6.83312262315e-06,6.13430972117e-06,5.99369769695e-07,-5.01112135623e-06,0.999999993362,6.6811546829e-07,-4.17441603381e-06,-3.53243638672e-07,-3.57113693467e-06,-2.4929296315e-07,-3.13999769749e-06,1.98148931296e-07,-2.84147324647e-06,-1.68196308685e-07,2.64922411776e-06,-1.48904019355e-07,-2.54844319575e-06,-1.35765992422e-07,-2.53613036279e-06,-2.62431459643e-06,-1.26536532709e-07,-2.85076960977e-06,1.19975609782e-07,-1.15347156042e-07,3.31248964984e-06,-1.12191235413e-07,-1.10210321219e-07,4.29130964039e-06,-6.98194473074e-06,-2.93172420268e-05,-0.000101393659655,-1.09208351151e-07,-1.09056199689e-07,-1.09671287288e-07,9.41088818071e-06,3.79135936193e-06,2.24578215305e-06,1.13036557489e-07,1.11005270061e-07,-1.5375051626e-06,1.15765917516e-07,-8.84793930068e-07,1.19214187912e-07,7.12354852718e-07,1.23421568213e-07,-1.2844821846e-07,5.88663154361e-07,1.34376084705e-07,-4.25835085979e-07,-3.70354195924e-07,4.96514634561e-07,-2.60269715106e-07,1.9737043456e-07,1.82466066626e-07,1.49392551307e-07,1.58790217442e-07,2.35596441079e-07,2.14885940995e-07,-2.89931590449e-07,1.13783666108e-06,3.25978570035e-07,1.41312042292e-07,-1.69722869408e-07,
-1.2365913956e-08,-1.62449527984e-07,1.35130195258e-08,-1.9271339017e-07,-1.48116325753e-08,-2.30961132579e-07,-2.80054320086e-07,-1.62892898246e-08,3.44229310302e-07,-1.79802117129e-08,-4.29960067697e-07,1.99274188543e-08,-2.21856848407e-08,-5.47539172359e-07,-7.14155380387e-07,2.4825787755e-08,9.603773591e-07,1.34529907466e-06,-2.79406625278e-08,3.16547411099e-08,-1.99724114718e-06,3.61382589277e-08,-3.24744154849e-06,-4.1630291006e-08,6.22539948068e-06,-1.66158441385e-05,-4.84770430871e-08,3.26210571261e-05,-5.71989537079e-08,-1.77126955641e-05,-6.86152914716e-08,-1.01086733089e-05,-8.40933454108e-08,7.93758697232e-06,1.06096799748e-07,1.39556535817e-07,-1.95983243499e-07,-7.27646420894e-06,7.1850291706e-06,6.45257135724e-06,3.09918099333e-07,-5.27292968972e-06,6.54087227445e-07,-0.999999992588,-4.39395325779e-06,-7.30611583465e-07,-3.76018078805e-06,-3.86708161357e-07,-3.3073268078e-06,2.73220006052e-07,-2.99392805674e-06,-2.17424508785e-07,2.792362004e-06,-1.84786264948e-07,-2.68713183461e-06,-1.63802227747e-07,-2.67517877869e-06,-2.76930642774e-06,-1.49551195044e-07,-3.00952682606e-06,1.39581383459e-07,-1.32539832179e-07,3.49847813043e-06,-1.27624374333e-07,-1.24334836151e-07,4.53430817345e-06,-7.38078419283e-06,-3.10070325167e-05,-0.000107252836943,-1.22348871652e-07,-1.21455462213e-07,-1.21517315951e-07,9.95859696687e-06,4.01417774043e-06,2.37911437598e-06,1.24202364561e-07,1.22448740686e-07,-1.62975609071e-06,1.26761187329e-07,-9.39085698438e-07,1.30134078715e-07,7.5658951974e-07,1.34353647231e-07,-1.39475968176e-07,6.25674023374e-07,1.45581896504e-07,-4.53328058415e-07,-3.94606533823e-07,5.28139377031e-07,-2.78128883516e-07,2.11669544222e-07,1.95954182833e-07,1.61210884225e-07,1.71054505227e-07,2.52042626178e-07,2.3016007017e-07,-3.09503696642e-07,1.20686146313e-06,3.47644236481e-07,1.52779940577e-07,-1.82539019322e-07,
-1.22138767322e-08,-1.70275836369e-07,1.3316613269e-08,-2.02031790195e-07,-1.455986129e-08,-2.42170876074e-07,-2.93699019968e-07,-1.59680460473e-08,3.61066648586e-07,-1.75712192237e-08,-4.51075397776e-07,1.94067495139e-08,-2.15216128681e-08,-5.74539609845e-07,-7.49520673922e-07,2.39756550888e-08,1.00814126904e-06,1.41250317632e-06,-2.68461951911e-08,3.02348168328e-08,-2.09746529355e-06,3.42775185333e-08,-3.41115781594e-06,-3.91604306138e-08,6.54072282169e-06,-1.74612706414e-05,-4.51449668424e-08,3.42857665141e-05,-5.2609754182e-08,-1.86196685888e-05,-6.21240371074e-08,-1.06288668709e-05,-7.45839756412e-08,8.34828788197e-06,9.14853942392e-08,1.15523638562e-07,-1.52093594512e-07,-7.65518926231e-06,7.5615158825e-06,6.79323112009e-06,2.1378952856e-07,-5.55329552977e-06,3.38404804738e-07,-7.14930235055e-07,-4.62915808904e-06,0.999999991705,-3.96280818422e-06,-8.00284057951e-07,-3.48676304268e-06,4.24067006433e-07,-3.15749305193e-06,-2.99970081738e-07,2.94600867838e-06,-2.39006890047e-07,-2.83608111749e-06,-2.03391022377e-07,-2.82459679358e-06,-2.9252010177e-06,-1.80537493276e-07,-3.18032513905e-06,1.65063161059e-07,-1.5428710464e-07,3.69870003112e-06,-1.46730981049e-07,-1.41519479186e-07,4.79607723884e-06,-7.810732628e-06,-3.28299453511e-05,-0.000113574930931,-1.38108124364e-07,-1.36147560782e-07,-1.35410878941e-07,1.05499258373e-05,4.25493801348e-06,2.52330739634e-06,1.37084796985e-07,1.35752630712e-07,-1.72961271763e-06,1.39362506178e-07,-9.97970916914e-07,1.42575641346e-07,8.04619047914e-07,1.46744307265e-07,-1.5191704114e-07,6.659066183e-07,1.58171189557e-07,-4.83290558399e-07,-4.21074519019e-07,5.62559439577e-07,-2.97714553143e-07,2.27446628873e-07,2.10871839668e-07,1.74393470806e-07,1.84692233847e-07,2.70112496255e-07,2.46976118698e-07,-3.30930655569e-07,1.28164942965e-06,3.71324872396e-07,1.6561529009e-07,-1.96750203414e-07,
-1.20958500253e-08,-1.78615097779e-07,1.31606834752e-08,-2.11962995633e-07,-1.43567434163e-08,-2.54120358609e-07,-3.08247351629e-07,-1.57059205981e-08,3.79023140668e-07,-1.72349023742e-08,-4.73599529001e-07,1.89765492028e-08,-2.0971713751e-08,-6.03348495108e-07,-7.87264154989e-07,2.32717883569e-08,1.05913036017e-06,1.48426438287e-06,-2.59422451532e-08,2.9067698672e-08,-2.20451532806e-06,3.27593501106e-08,-3.5860742692e-06,-3.71660940066e-08,6.87771701917e-06,-1.83650578965e-05,-4.24917565575e-08,3.60657283221e-05,-4.90226518825e-08,-1.95896440548e-05,-5.71735502632e-08,-1.11853743309e-05,-6.75680878892e-08,8.78781555415e-06,8.11882136435e-08,9.9673024535e-08,-1.25976324639e-07,-8.06065498827e-06,7.96476643882e-06,7.15829416771e-06,1.66010563386e-07,-5.85389246512e-06,2.33578757611e-07,-3.70102343367e-07,-4.88145347306e-06,7.82716593944e-07,-4.18026156169e-06,0.999999990697,-3.67942188646e-06,8.78117665574e-07,-3.33319961377e-06,-4.65862008459e-07,3.11114738308e-06,-3.29941714364e-07,-2.99625896388e-06,-2.63226640112e-07,-2.98537100755e-06,-3.09304500472e-06,-2.24303824101e-07,-3.36433131928e-06,1.99381552748e-07,-1.82561673418e-07,3.91454811525e-06,-1.70907991469e-07,-1.62802751717e-07,5.07847247418e-06,-8.27489859218e-06,-3.47994309837e-05,-0.00012040686409,-1.57289578167e-07,-1.53775250507e-07,-1.518810853e-07,1.11893359391e-05,4.51549799619e-06,2.67950056589e-06,1.52068950093e-07,1.51363431448e-07,-1.83788393753e-06,1.53908534283e-07,-1.06195281161e-06,1.56841974527e-07,8.56865888606e-07,1.60869190796e-07,-1.66025811624e-07,7.09725700019e-07,1.72381955603e-07,-5.16012622689e-07,-4.50023604432e-07,6.00097000468e-07,-3.19247915729e-07,2.44906816551e-07,2.27423524105e-07,1.89156659045e-07,1.99913358656e-07,2.90019353734e-07,2.65542115826e-07,-3.54444545076e-07,1.36282240967e-06,3.97267031002e-07,1.80043628385e-07,-2.12562487728e-07,
-1.20090158241e-08,-1.87510201547e-07,1.30415043167e-08,-2.2255840221e-07,-1.41973396974e-08,-2.6687182027e-07,-3.23775594765e-07,-1.54963188888e-08,3.98193582073e-07,-1.69623823707e-08,-4.97652210832e-07,1.86247539666e-08,-2.05194043983e-08,-6.34120110976e-07,-8.27589478058e-07,2.26910829424e-08,1.11362190267e-06,1.56097606146e-06,-2.51960957424e-08,2.81061817259e-08,-2.31898293553e-06,3.15141083495e-08,-3.77316599065e-06,-3.55417842063e-08,7.23827714855e-06,-1.93323316464e-05,-4.03525072688e-08,3.79710940964e-05,-4.61698599203e-08,-2.06281896243e-05,-5.33079595663e-08,-1.17814205946e-05,-6.22219371588e-08,9.25874392963e-06,7.35962144429e-08,8.85085576644e-08,-1.08758221217e-07,-8.49526334486e-06,8.39720146116e-06,7.54998493799e-06,1.37587868414e-07,-6.17657849199e-06,1.81488475406e-07,-2.55614247374e-07,-5.1524202953e-06,4.05442384757e-07,-4.41392228282e-06,8.58392484835e-07,-3.88654449916e-06,-0.999999989543,-3.52219625757e-06,-9.65254769004e-07,3.28887396301e-06,-5.12723171432e-07,-3.16874510937e-06,-3.63599276983e-07,-3.15860304098e-06,-3.27400822864e-06,-2.9046989534e-07,-3.56285088381e-06,2.47868115342e-07,-2.20653503058e-07,4.14758254637e-06,-2.02352583898e-07,-1.89744278712e-07,5.3835750726e-06,-8.77677299012e-06,-3.69306146749e-05,-0.000127801422374,-1.81055557197e-07,-1.75240129369e-07,-1.71651134963e-07,1.18818514722e-05,4.79795324982e-06,2.84898119462e-06,1.69660074107e-07,1.69878139295e-07,-1.95548533128e-06,1.70836374236e-07,-1.13160325282e-06,1.73318710352e-07,9.13811185752e-07,1.77074588046e-07,-1.82118314837e-07,7.57547695035e-07,1.88506931762e-07,-5.51827148864e-07,-4.81759379645e-07,6.41120816416e-07,-3.42986299408e-07,2.6429203235e-07,2.45851701637e-07,2.05762090142e-07,2.16969970912e-07,3.12012381577e-07,2.86102188871e-07,-3.80314340162e-07,1.45108561644e-06,4.25755455273e-07,1.96339905529e-07,-2.30221674389e-07,
-1.19511311268e-08,-1.97008429857e-07,1.29561107333e-08,-2.33874685477e-07,-1.40777163095e-08,-2.80493911652e-07,-3.40367910384e-07,-1.53340022849e-08,4.18682593463e-07,-1.67466495706e-08,-5.23365646636e-07,1.83419083022e-08,-2.01518089829e-08,-6.67024838212e-07,-8.70721626965e-07,2.22158037525e-08,1.17192230918e-06,1.64307308494e-06,-2.45829883093e-08,2.7315145383e-08,-2.44152248675e-06,3.0491034936e-08,-3.97351180102e-06,-3.42125078598e-08,7.62450078003e-06,-2.0368767666e-05,-3.86134658349e-08,4.00131077985e-05,-4.38733078403e-08,-2.17414740554e-05,-5.0237702626e-08,-1.24205804328e-05,-5.80518943073e-08,9.7639277119e-06,6.781618365e-08,8.02830165239e-08,-9.66375049062e-08,-8.96167986815e-06,8.86150905191e-06,7.97077563774e-06,1.18858230584e-07,-6.52342015501e-06,1.50511410674e-07,-1.98736078945e-07,-5.44381821551e-06,2.80200125208e-07,-4.66532909471e-06,4.44924643129e-07,-4.10951457013e-06,-9.43054391924e-07,-3.72576446057e-06,0.999999988216,3.48041220561e-06,-1.06302528091e-06,-3.35474649129e-06,-5.65385603368e-07,-3.34552552498e-06,-3.46940104328e-06,-4.01485905348e-07,-3.7773477992e-06,3.2118931705e-07,-2.74487443393e-07,4.39955493166e-06,-2.44729280295e-07,-2.24797270818e-07,5.7137245796e-06,-9.32028539098e-06,-3.92405465854e-05,-0.000135818134273,-2.11151793775e-07,-2.01846599716e-07,-1.95735568831e-07,1.26331450378e-05,5.10467368447e-06,3.03320770182e-06,1.90533850656e-07,1.9211286158e-07,-2.08345614522e-06,1.90719639627e-07,-1.20757410452e-06,1.92503689595e-07,9.76004677371e-07,1.9580119894e-07,-2.00591695002e-07,8.09849610885e-07,2.06909911703e-07,-5.91117637047e-07,-5.1663502371e-07,6.86054450726e-07,-3.69230514073e-07,2.8588927666e-07,2.66445728888e-07,2.24528845481e-07,2.36167056062e-07,3.3638417984e-07,3.089444093e-07,-4.0885316822e-07,1.54724115407e-06,4.57120388064e-07,2.1484243223e-07,-2.50023010875e-07,
-1.19204349274e-08,-2.07161993406e-07,1.29021563348e-08,-2.45974445048e-07,-1.39947529108e-08,-2.95062481422e-07,-3.58117310468e-07,-1.52148185605e-08,4.40605832982e-07,-1.65821547884e-08,-5.5088603319e-07,1.81205613369e-08,-1.98588482313e-08,-7.02251155255e-07,-9.16909565296e-07,2.1832193872e-08,1.23437078053e-06,1.73103704174e-06,-2.40839385717e-08,2.66680339517e-08,-2.57285893226e-06,2.96524019435e-08,-4.18830737757e-06,-3.31236429476e-08,8.03871368801e-06,-2.14806618921e-05,-3.71937981447e-08,4.22042454827e-05,-4.20101932315e-08,-2.29363443072e-05,-4.77702638542e-08,-1.31068235756e-05,-5.47444548222e-08,1.03065387488e-05,6.33129116317e-08,7.40265639451e-08,-8.77142529893e-08,-9.4628680355e-06,9.36067991338e-06,8.42341903991e-06,1.05681487603e-07,-6.89672037958e-06,1.30108177405e-07,-1.64923717205e-07,-5.75760969838e-06,2.17994760701e-07,-4.93619946573e-06,3.07688817529e-07,-4.34987778269e-06,-4.89128894015e-07,-3.94533698027e-06,1.03797736836e-06,3.68713164947e-06,0.999999986688,-3.55561511436e-06,-1.17298220163e-06,-3.5475206845e-06,-3.68069444791e-06,-6.2470942299e-07,-4.0094674504e-06,4.44238592274e-07,-3.55917175638e-07,4.67243641486e-06,-3.04637687132e-07,-2.72053463147e-07,6.0715572847e-06,-9.90987010036e-06,-4.17484957959e-05,-0.000144524304906,-2.50324387364e-07,-2.35553955263e-07,-2.25602378799e-07,1.34496382313e-05,5.43834680629e-06,3.23383705525e-06,2.15614090927e-07,2.19212624567e-07,-2.222979492e-06,2.14325553054e-07,-1.29061080995e-06,2.15050360566e-07,1.04407660572e-06,2.1761809537e-07,-2.21951508842e-07,8.67179791702e-07,2.28048208168e-07,-6.3432764343e-07,-5.55060431083e-07,7.35386239428e-07,-3.98333991459e-07,3.10041236375e-07,2.89553344116e-07,2.45849693908e-07,2.57876724573e-07,3.63480210145e-07,3.34410716149e-07,-4.40427300901e-07,1.65220413841e-06,4.91746538768e-07,2.35971783847e-07,-2.72323873903e-07,
-1.19155697529e-08,-2.18028644201e-07,1.28778116971e-08,-2.58926942143e-07,-1.39459980207e-08,-3.10661475702e-07,-3.77126766507e-07,-1.51354900583e-08,4.64091381355e-07,-1.64645150617e-08,-5.80375323682e-07,1.79548331399e-08,-1.96326024743e-08,-7.40007925224e-07,-9.66429283112e-07,2.15295085391e-08,1.30134347532e-06,1.82540220135e-06,-2.3684243308e-08,2.61445113881e-08,-2.7137968534e-06,2.89697039667e-08,-4.41888030245e-06,-3.22346154383e-08,8.48349936596e-06,-2.26750109686e-05,-3.60346599175e-08,4.45583757639e-05,-4.04932952291e-08,-2.42204141539e-05,-4.57729244173e-08,-1.38445665772e-05,-5.20912417458e-08,1.08901079088e-05,5.9746532879e-08,6.91581275405e-08,-8.09339540064e-08,-1.0002128846e-05,9.89804783457e-06,8.91098633687e-06,9.59886983889e-08,-7.29905061731e-06,1.15763306099e-07,-1.42664197395e-07,-6.09598781941e-06,1.81029434769e-07,-5.22845428161e-06,2.39544455077e-07,-4.60936438522e-06,-3.38489542167e-07,-4.18251913282e-06,5.38730049674e-07,3.91056825078e-06,1.14464854324e-06,-3.77286882581e-06,0.999999984922,-3.76614198751e-06,-3.90954360918e-06,-1.29694479819e-06,-4.26106351215e-06,6.91704815974e-07,-4.92607325006e-07,4.9684505955e-06,-3.95281784686e-07,-3.38882119672e-07,6.46005131493e-06,-1.05505439331e-05,-4.44762971784e-05,-0.000153996236864,-3.03153848707e-07,-2.79444446714e-07,-2.63456754885e-07,1.43386206273e-05,5.8020290118e-06,3.45275741195e-06,2.46197113808e-07,2.52834412804e-07,-2.37540644234e-06,2.42703280465e-07,-1.38156872753e-06,2.41832916037e-07,1.11875207995e-06,2.43272388066e-07,-2.46850754952e-07,9.30170958619e-07,2.52504150971e-07,-6.81972355054e-07,-5.97513459842e-07,7.8968143957e-07,-4.30714288715e-07,3.37159952082e-07,3.15595658896e-07,2.70213093486e-07,2.82557197486e-07,3.93710790097e-07,3.62909619507e-07,-4.75467370709e-07,1.76702201087e-06,5.30084224126e-07,2.60256837196e-07,-2.97560476313e-07,
-1.19355270832e-08,-2.29672376357e-07,1.28816870932e-08,-2.72808947267e-07,-1.39295575668e-08,-3.27383964314e-07,-3.97510478924e-07,-1.50934590928e-08,4.89281334808e-07,-1.63902889444e-08,-6.12013249753e-07,1.78401011638e-08,-1.94668430022e-08,-7.80527019229e-07,-1.01958728512e-06,2.12993270582e-08,1.37325830378e-06,1.92676237089e-06,-2.33724486093e-08,2.5728857258e-08,-2.86523086875e-06,2.842114402e-08,-4.66670736831e-06,-3.15148058673e-08,8.9617329865e-06,-2.3959604972e-05,-3.50923757455e-08,4.70909446271e-05,-3.92591562581e-08,-2.56021662952e-05,-4.41514584722e-08,-1.46387326038e-05,-4.99486410583e-08,1.15185733916e-05,5.6891214073e-08,6.53087867628e-08,-7.56648808449e-08,-1.05831465229e-05,1.04773364932e-05,9.43691094035e-06,8.86316117142e-08,-7.73328809623e-06,1.05220427519e-07,-1.27025024443e-07,-6.4614085114e-06,1.56707229557e-07,-5.54424651742e-06,1.99066041945e-07,-4.88991544428e-06,-2.63710626039e-07,-4.43911353773e-06,3.73079257192e-07,4.15244849958e-06,5.94515881901e-07,-4.00821559858e-06,1.26480792714e-06,-4.00313948432e-06,-4.15781541565e-06,0.999999982874,-4.53422948837e-06,1.43705095144e-06,-7.67561746853e-07,5.29011224796e-06,-5.4747801159e-07,-4.40027469533e-07,6.88257976477e-06,-1.12479980574e-05,-4.74487621387e-05,-0.000164320676895,-3.77890042087e-07,-3.38659584008e-07,-3.12768042753e-07,1.53083910705e-05,6.19920668607e-06,3.69212710869e-06,2.84159081072e-07,2.95467558323e-07,-2.54228491389e-06,2.77325258307e-07,-1.48143285835e-06,2.74047005425e-07,1.20086852092e-06,2.73763795794e-07,-2.76146935687e-07,9.99556110959e-07,2.81030095132e-07,-7.34652834065e-07,-6.44553874487e-07,8.49597114666e-07,-4.66867653245e-07,3.67744660322e-07,3.45086926649e-07,2.98233492538e-07,3.10778557396e-07,4.27566400924e-07,3.94932578123e-07,-5.14482478344e-07,1.89289777165e-06,5.72663266274e-07,2.88371248519e-07,-3.26270216673e-07,
-1.19796072004e-08,-2.42164230262e-07,1.29127697822e-08,-2.87705707271e-07,-1.39440142378e-08,-3.45333328274e-07,-4.19395336871e-07,-1.50867742524e-08,5.16333626978e-07,-1.6356816912e-08,-6.45999646395e-07,1.77727578512e-08,-1.93567001242e-08,-8.24066336854e-07,-1.07672460903e-06,2.11350564864e-08,1.45058044216e-06,2.03577879206e-06,-2.31396005148e-08,2.54088526426e-08,-3.02815762115e-06,2.7989900938e-08,-4.93343453104e-06,-3.09408333816e-08,9.4766205743e-06,-2.53431344389e-05,-3.43340283981e-08,4.98191888147e-05,-3.82607222758e-08,-2.70910702937e-05,-4.28373659914e-08,-1.54948205496e-05,-4.82147503177e-08,1.21963366166e-05,5.45913753856e-08,6.2233465274e-08,-7.15060229899e-08,-1.12100414303e-05,1.11027136881e-05,1.00050393101e-05,8.29224405174e-08,-8.20265908083e-06,9.72273554434e-08,-1.15541574766e-07,-6.8566280639e-06,1.39631423872e-07,-5.885994636e-06,1.7244749233e-07,-5.19371343865e-06,-2.1931007194e-07,-4.71714903818e-06,2.90872951707e-07,4.41471760268e-06,4.12015181022e-07,-4.26358193857e-06,6.57409205066e-07,-4.26048951243e-06,-4.42762084822e-06,1.40049740385e-06,-4.8313358394e-06,-0.999999980492,-1.59582260536e-06,5.64027300193e-06,-8.53687656549e-07,-6.09901271092e-07,7.34297354614e-06,-1.20087069164e-05,-5.06941668905e-05,-0.000175596536991,-4.91039521573e-07,-4.22460005799e-07,-3.79323837539e-07,1.63684261337e-05,6.63386925928e-06,3.95442146335e-06,3.32318882969e-07,3.510287686e-07,-2.72539446807e-06,3.20322810575e-07,-1.59134181684e-06,3.1337092243e-07,1.29139692991e-06,3.10459908125e-07,-3.10987751967e-07,1.07618802732e-06,3.14614305398e-07,-7.93073721606e-07,-6.96840748741e-07,9.15900491621e-07,-5.07387660861e-07,4.02405329617e-07,3.78660980741e-07,3.30693829534e-07,3.43258214259e-07,4.65637463376e-07,4.31075377113e-07,-5.58078073935e-07,2.03121808523e-06,6.20110470091e-07,3.21185650683e-07,-3.59121963977e-07,
-1.20473830855e-08,-2.55583219181e-07,1.29703841792e-08,-3.03712064154e-07,-1.39883659151e-08,-3.64624618608e-07,-4.42922599059e-07,-1.51139981255e-08,5.45424136562e-07,-1.63620928984e-08,-6.82557132258e-07,1.77500451891e-08,-1.92984006821e-08,-8.70913285709e-07,-1.13822145952e-06,2.10315691359e-08,1.53382870089e-06,2.15318925667e-06,-2.29787214884e-08,2.51749810406e-08,-3.2036896307e-06,2.76629421073e-08,-5.22089997213e-06,-3.04946962634e-08,1.00317443156e-05,-2.68353142183e-05,-3.37345244675e-08,5.27623828586e-05,-3.74625759979e-08,-2.86977191809e-05,-4.177990428e-08,-1.64189851414e-05,-4.68155485183e-08,1.29283270444e-05,5.27366737659e-08,5.97633996205e-08,-6.81910614241e-08,-1.18874315003e-05,1.17788543708e-05,1.06196900897e-05,7.84246898234e-08,-8.71078928738e-06,9.10341579329e-08,-1.06846225934e-07,-7.28474686714e-06,1.27105579944e-07,-6.25642158553e-06,1.53774213728e-07,-5.52321804431e-06,-1.90130041806e-07,-5.01891454398e-06,2.42084364684e-07,4.69957254819e-06,3.21475544877e-07,-4.54114628179e-06,4.55950814473e-07,-4.5404296761e-06,-4.72135316335e-06,7.2849407588e-07,-5.15507387277e-06,-1.55412239392e-06,0.999999977712,6.02217544092e-06,-1.77624474119e-06,-9.51753190253e-07,7.84559598645e-06,-1.28400578517e-05,-5.42448352587e-05,-0.000187936950375,-6.81127877492e-07,-5.4937521665e-07,-4.73548889947e-07,1.75295818254e-05,7.11059699685e-06,4.24248920253e-06,3.95112159185e-07,4.2605232162e-07,-2.92678843505e-06,3.74898602701e-07,-1.71261709404e-06,3.62234339583e-07,1.39146800963e-06,3.55280715213e-07,-3.52943564488e-07,1.16106333586e-06,3.54579800455e-07,-8.58065338108e-07,-7.55154400928e-07,9.89491755809e-07,-5.52989293712e-07,4.41894144788e-07,4.1710708328e-07,3.68606285906e-07,3.80910624526e-07,5.0864015897e-07,4.72066346107e-07,-6.06978844233e-07,2.18358743418e-06,6.73171800049e-07,3.59843977347e-07,-3.96957791906e-07,
-1.21386817376e-08,-2.70017397305e-07,1.30541569287e-08,-3.20933743849e-07,-1.40619727574e-08,-3.85386127975e-07,-4.68249836059e-07,-1.51741486838e-08,5.76749117623e-07,-1.64046767655e-08,-7.21934204206e-07,1.77699158636e-08,-1.92890930008e-08,-9.21388804756e-07,-1.20450256911e-06,2.09849289138e-08,1.62358289028e-06,2.27981866602e-06,-2.28844221544e-08,2.50198681564e-08,-3.39307133578e-06,2.7430158423e-08,-5.53116083056e-06,-3.01624873941e-08,1.06311150994e-05,-2.84470271881e-05,-3.32745923543e-08,5.59421258508e-05,-3.68377675925e-08,-3.04339881039e-05,-4.0940933243e-08,-1.74181300323e-05,-4.56962577439e-08,1.37200775769e-05,5.12470360151e-08,5.77789774459e-08,-6.55367019472e-08,-1.2620503751e-05,1.25110141094e-05,1.12857231217e-05,7.48485684316e-08,-9.2617627782e-06,8.61650129419e-08,-1.00120019367e-07,-7.7492605902e-06,1.17633588366e-07,-6.65860048705e-06,1.40091186269e-07,-5.88120811858e-06,-1.69677094619e-07,-5.34699880801e-06,2.100413221e-07,5.00950101551e-06,2.67767088443e-07,-4.84337835656e-06,3.56039800173e-07,-4.84550013014e-06,-5.04173307479e-06,5.05654766453e-07,-5.50850777428e-06,-8.09048921929e-07,1.72852557527e-06,6.43951743155e-06,0.999999974454,-1.98186489845e-06,8.39543175885e-06,-1.37505060363e-05,-5.81378372969e-05,-0.000201471738202,-1.06374939433e-06,-7.62653267393e-07,-6.16302804313e-07,1.88043361917e-05,7.63466693661e-06,4.55962081755e-06,4.79939468544e-07,5.32308591162e-07,-3.14884515001e-06,4.46092623978e-07,-1.8467990165e-06,4.24288648242e-07,1.50240441798e-06,4.11006221731e-07,-4.04219467833e-07,1.25535241485e-06,4.02737273342e-07,-9.30611536422e-07,-8.20424194615e-07,1.07143255269e-06,-6.04540362238e-07,4.87148200762e-07,4.61419318636e-07,4.13301221239e-07,4.24918437904e-07,5.57450509667e-07,5.18804112076e-07,-6.62058285416e-07,2.35186987789e-06,7.32740773978e-07,4.05878094147e-07,-4.40851500206e-07,
-1.22535666521e-08,-2.85565094705e-07,1.31639939542e-08,-3.39488846186e-07,-1.41645333363e-08,-4.07761212671e-07,-4.95553175712e-07,-1.52666458626e-08,6.10528016092e-07,-1.64836237799e-08,-7.64408827731e-07,1.78309395908e-08,-1.9326701412e-08,-9.75852031876e-07,-1.27604341226e-06,2.09922030402e-08,1.72049237012e-06,2.41659128276e-06,-2.28526099237e-08,2.49378574838e-08,-3.5976977328e-06,2.72837597218e-08,-5.86652426832e-06,-2.99334748731e-08,1.12792336239e-05,-3.01904914978e-05,-3.29393953342e-08,5.93826752838e-05,-3.63656607087e-08,-3.2313219108e-05,-4.02914987472e-08,-1.85000163159e-05,-4.48157823535e-08,1.45778125143e-05,5.00632816102e-08,5.61934765186e-08,-6.34131281437e-08,-1.34150977952e-05,1.33051149599e-05,1.20086202319e-05,7.19947219492e-08,-9.8601910023e-06,8.23041415462e-08,-9.48434860218e-08,-8.2541202477e-06,1.10319718285e-07,-7.09600833064e-06,1.29759023473e-07,-6.27083110821e-06,-1.54707210031e-07,-5.70433731453e-06,1.87601906199e-07,5.34732731496e-06,2.32517284846e-07,-5.17308574571e-06,2.96802692948e-07,-5.17859255325e-06,-5.39186242427e-06,3.95179754669e-07,-5.89513657065e-06,-5.62034420008e-07,9.00586527661e-07,6.89652888282e-06,1.92707997085e-06,0.999999970622,8.99819330992e-06,-1.47497604609e-05,-6.24158305234e-05,-0.000216350382597,-2.2169153323e-06,-1.19205931649e-06,-8.56273018004e-07,2.02070824916e-05,8.2121814148e-06,4.90963184595e-06,6.00132350279e-07,6.93350499418e-07,-3.39433066657e-06,5.42314419606e-07,-1.99569118229e-06,5.05280656044e-07,1.62576087582e-06,4.81814902841e-07,-4.68008805354e-07,1.36043681602e-06,4.61629773977e-07,-1.01188505331e-06,-8.93764186825e-07,1.1629819142e-06,-6.63103029725e-07,5.39348341631e-07,5.12865874716e-07,4.66560640683e-07,4.76836577718e-07,6.13149989837e-07,5.72408800212e-07,-7.24377319071e-07,2.53824038504e-06,7.99895163879e-07,4.61385006077e-07,-4.92192339856e-07,
-1.23923292145e-08,-3.02336351075e-07,1.33000657331e-08,-3.59509576725e-07,-1.42960550638e-08,-4.31910401828e-07,-5.25029914052e-07,-1.53912819361e-08,6.47006740278e-07,-1.65984341278e-08,-8.1029260634e-07,1.79322313162e-08,-1.94098293284e-08,-1.03470572426e-06,-1.35337743955e-06,2.10513073195e-08,1.82528599568e-06,2.56454500139e-06,-2.28802859041e-08,2.49247103563e-08,-3.81913608528e-06,2.7217826541e-08,-6.22958368582e-06,-2.97994423824e-08,1.19811616717e-05,-3.20794557531e-05,-3.27175456979e-08,6.3111336846e-05,-3.60304334485e-08,-3.43504369961e-05,-3.9809500284e-08,-1.96733893819e-05,-4.41429944337e-08,1.55085504725e-05,4.91410860811e-08,5.49428977311e-08,-6.17263158759e-08,-1.42778036457e-05,1.41678461671e-05,1.27945800913e-05,6.97220862663e-08,-1.05112939716e-05,7.92344347226e-08,-9.06720330951e-08,-8.80380292451e-06,1.04595943364e-07,-7.57258929695e-06,1.21796410117e-07,-6.69566140326e-06,-1.43420890876e-07,-6.09426774703e-06,1.71198398072e-07,5.71626683559e-06,2.07856138461e-07,-5.53346917784e-06,2.5795324514e-07,-5.543008383e-06,-5.77528818515e-06,3.29715298866e-07,-6.31896821346e-06,-4.39621202871e-07,6.26164861013e-07,7.39806377681e-06,1.00490383783e-06,2.15380259194e-06,9.66044877121e-06,-1.5849008182e-05,-6.71280777322e-05,-0.000232745627284,0.999999966097,-2.48646761054e-06,-1.33954752221e-06,2.17544852628e-05,8.85022478622e-06,5.29696486306e-06,7.82368807914e-07,9.64153264383e-07,-3.66647592582e-06,6.78714060685e-07,-2.16141578107e-06,6.14800062405e-07,1.76337439997e-06,5.7428385922e-07,-5.49112050096e-07,1.4779564609e-06,5.34940810849e-07,-1.10329284064e-06,-9.76519202733e-07,1.26564190245e-06,-7.29989379885e-07,6.00001723124e-07,5.73088179422e-07,5.30824649625e-07,5.38748525017e-07,6.77087411492e-07,6.34292636056e-07,-7.95235350135e-07,2.74524835998e-06,8.75944954451e-07,5.29310596632e-07,-5.52807539829e-07,
-1.25554857655e-08,-3.20454582921e-07,1.34627995915e-08,-3.81144259328e-07,-1.44568436966e-08,-4.58013858e-07,-5.56901554288e-07,-1.5548192038e-08,6.86461473319e-07,-1.67490203904e-08,-8.5993564051e-07,1.80734029516e-08,-1.95376804787e-08,-1.0984025842e-06,-1.43710450963e-06,2.11609034179e-08,1.93878372932e-06,2.72484800948e-06,-2.29653811567e-08,2.49773816833e-08,-4.05915129135e-06,2.72279904649e-08,-6.62326106048e-06,-2.97542178946e-08,1.27426054871e-05,-3.41294275185e-05,-3.26003965117e-08,6.71589209453e-05,-3.58200122396e-08,-3.65626022656e-05,-3.94780675878e-08,-2.09481276838e-05,-4.36542217847e-08,1.65202251828e-05,4.84469812702e-08,5.39794166856e-08,-6.040698801e-08,-1.52160766385e-05,1.51067826259e-05,1.36506299694e-05,6.79286075053e-08,-1.12209960399e-05,7.68024056098e-08,-8.73688858851e-08,-9.40339534491e-06,1.00085657825e-07,-8.09282967891e-06,1.155812382e-07,-7.15976950596e-06,-1.34741227135e-07,-6.52059583547e-06,1.58852015929e-07,6.11999081099e-06,1.89852565076e-07,-5.92818842265e-06,2.30802108516e-07,-5.94252840144e-06,-6.19607909774e-06,2.86816028847e-07,-6.7846084846e-06,-3.67125205017e-07,4.9022514042e-07,7.94971093596e-06,6.99324812072e-07,1.12414391905e-06,1.03897764686e-05,-1.70611860236e-05,-7.2331684606e-05,-0.000250857860501,2.41349855051e-06,0.999999960729,-2.79662539391e-06,2.34659150728e-05,9.55705560642e-06,5.72681516085e-06,1.08891994227e-06,1.50967383152e-06,-3.96907235032e-06,8.85609993322e-07,-2.34648291751e-06,7.70124197524e-07,1.91742769556e-06,6.9938933978e-07,-6.55086309161e-07,1.6098696573e-06,6.28208562172e-07,-1.2065347082e-06,-1.07032509746e-06,1.38121615067e-06,-8.06836855491e-07,6.71059942614e-07,6.44245991294e-07,6.09521965417e-07,6.13508021426e-07,7.50964272524e-07,7.06258988474e-07,-8.76238599496e-07,2.97589676314e-06,9.62495756336e-07,6.13922673264e-07,-6.25146285354e-07,
-1.27437782066e-08,-3.40058528193e-07,1.36528781013e-08,-4.0455968677e-07,-1.46474944088e-08,-4.86274246145e-07,-5.91417356583e-07,-1.57378510894e-08,7.29203124349e-07,-1.69356851252e-08,-9.13732209816e-07,1.82545225367e-08,-1.97100103638e-08,-1.16745265491e-06,-1.52790076044e-06,2.1320321126e-08,2.06191023301e-06,2.89881830645e-06,-2.310665445e-08,2.50938550037e-08,-4.3197356177e-06,2.73111913615e-08,-7.05085660217e-06,-2.9793322777e-08,1.35700136393e-05,-3.63579416664e-05,-3.25815355676e-08,7.15602790933e-05,-3.57253222913e-08,-3.89689084596e-05,-3.92844253313e-08,-2.2335417766e-05,-4.33314941617e-08,1.76218277515e-05,4.79556125225e-08,5.32670209049e-08,-5.94035038842e-08,-1.62383729068e-05,1.61305247103e-05,1.45847578509e-05,6.65392337908e-08,-1.1996039296e-05,7.48971727461e-08,-8.47668285889e-08,-1.005869296e-05,9.6530278087e-08,-8.66184686772e-06,1.10701269176e-07,-7.66780430481e-06,-1.27985751796e-07,-6.98767384217e-06,1.49378833251e-07,6.56270365382e-06,1.76326571123e-07,-6.36144115669e-06,2.11009328496e-07,-6.38149618773e-06,-6.6589178245e-06,2.56868267496e-07,-7.29736823255e-06,-3.19658890858e-07,4.09769299298e-07,8.55792800772e-06,5.48017075633e-07,7.83041198322e-07,1.11949523598e-05,-1.84013114841e-05,-7.80931126587e-05,-0.000270920479025,1.26087306356e-06,2.71193901419e-06,0.999999954333,2.53639822978e-05,1.03423437044e-05,6.2052865695e-06,1.7066375437e-06,3.1547696849e-06,-4.30659102138e-06,1.23377286061e-06,-2.55387819604e-06,1.0058302736e-06,2.09052984919e-06,8.76908238806e-07,-7.98544629655e-07,1.75853011573e-06,7.50152684733e-07,-1.32368004181e-06,-1.17718845429e-06,1.51188567783e-06,-8.95712294355e-07,7.55091979485e-07,7.29235312342e-07,7.07620997942e-07,7.051261002e-07,8.36954530902e-07,7.90644171467e-07,-9.69392906966e-07,3.23374139145e-06,1.06153373633e-06,7.21639105736e-07,-7.1256432448e-07,
-1.29581819248e-08,-3.61304523935e-07,1.38712436373e-08,-4.2994387261e-07,-1.48688944097e-08,-5.16920096591e-07,-6.28858498219e-07,-1.59610621607e-08,7.75582549484e-07,-1.71591119033e-08,-9.72127435851e-07,1.84761032144e-08,-1.99270910148e-08,-1.24243199805e-06,-1.62653019658e-06,2.15295074765e-08,2.19571083136e-06,3.08794663994e-06,-2.33036051075e-08,2.52730287018e-08,-4.60314366175e-06,2.74655065316e-08,-7.51610718547e-06,-2.99137246481e-08,1.4470692246e-05,-3.87848765754e-05,-3.26564112017e-08,7.63549362238e-05,-3.57397341795e-08,-4.15911328887e-05,-3.92190739371e-08,-2.38479608852e-05,-4.31613156233e-08,1.88235747542e-05,4.7647857568e-08,5.2778571494e-08,-5.8677120841e-08,-1.73543096442e-05,1.72488639045e-05,1.56060691751e-05,6.54981713615e-08,-1.28441183086e-05,7.34373536966e-08,-8.27452414631e-08,-1.07763178758e-05,9.37473908506e-08,-9.28549543064e-06,1.06873693318e-07,-8.2250913386e-06,-1.22702491271e-07,-7.50049447285e-06,1.42028890969e-07,7.04923568689e-06,1.65974204815e-07,-6.83805773275e-06,1.9616858112e-07,-6.86491866781e-06,-7.16921227117e-06,2.35070886376e-07,-7.8633932664e-06,-2.8656313801e-07,3.57140017349e-07,9.23020430614e-06,4.58526493198e-07,6.14223277197e-07,1.20861786679e-05,-1.98868878207e-05,-8.44900391853e-05,-0.000293206490642,8.79145153035e-07,1.41817820172e-06,3.0560882936e-06,2.747519647e-05,1.12174644904e-05,6.73958596393e-06,3.56987005107e-06,-0.999999946676,-4.684332382e-06,1.93556201893e-06,-2.7871742609e-06,1.40263262612e-06,2.2858199388e-06,1.14642223316e-06,-1.00221489211e-06,1.92678675443e-06,9.15328216847e-07,-1.45726934757e-06,-1.29959338197e-06,1.66030808827e-06,-9.99258009474e-07,8.55543970133e-07,8.32025471069e-07,8.32594641469e-07,8.19416408939e-07,9.37876088999e-07,8.90525026932e-07,-1.07723179072e-06,3.52301638998e-06,1.17554098641e-06,8.62566111695e-07,-8.19779647259e-07,
-1.31999155896e-08,-3.84369179505e-07,1.41191080485e-08,-4.57509283464e-07,-1.51222309277e-08,-5.50209756502e-07,-6.69542961737e-07,-1.62189641439e-08,8.25996692669e-07,-1.74203608257e-08,-1.03562512213e-06,1.87390857821e-08,-2.01896961006e-08,-1.32399290858e-06,-1.73385833362e-06,2.17889916446e-08,2.34137032884e-06,3.29392355422e-06,-2.35564296816e-08,2.55146330827e-08,-4.91193360498e-06,2.76900358264e-08,-8.02325533349e-06,-3.01136543702e-08,1.5452941118e-05,-4.14328279919e-05,-3.28220728354e-08,8.15878386922e-05,-3.58586745351e-08,-4.44540517545e-05,-3.92752079142e-08,-2.55002177829e-05,-4.31337882318e-08,2.01371075781e-05,4.75094910469e-08,5.24937445549e-08,-5.81987970804e-08,-1.85748553703e-05,1.84729797134e-05,1.67249734793e-05,6.47637379221e-08,-1.3774040848e-05,7.23626382728e-08,-8.12158156852e-08,-1.15638597566e-05,9.1605653312e-08,-9.97049407686e-06,1.03899258125e-07,-8.83775062161e-06,-1.18581679269e-07,-8.06480370943e-06,1.36305832501e-07,7.58515481065e-06,1.57969858686e-07,-7.36361557505e-06,1.84840989423e-07,-7.39858779389e-06,-7.73323069857e-06,2.18762377993e-07,-8.48982251667e-06,-2.62515346823e-07,3.20492635561e-07,9.9752597426e-06,4.00045623811e-07,5.14449332692e-07,1.30753642376e-05,-2.15384028401e-05,-9.16136575431e-05,-0.000318036690396,6.90316486628e-07,9.89842379988e-07,1.59978950887e-06,2.98307858476e-05,1.21958667742e-05,7.33826785024e-06,-0.99999993746,-3.45439029373e-06,-5.10861567175e-06,4.05288548113e-06,-3.05067419413e-06,2.20273298211e-06,2.50710141249e-06,1.60033111523e-06,-1.31158762097e-06,2.11811440577e-06,1.14996470959e-06,-1.6104503674e-06,-1.44064667239e-06,1.82974898831e-06,-1.12090096612e-06,9.77141078723e-07,9.58198932959e-07,9.96212409645e-07,9.65124982939e-07,1.05744192256e-06,1.01003078582e-06,-1.20299624736e-06,3.84879428644e-06,1.30765479314e-06,1.05357530005e-06,-9.53632400829e-07,
-1.34704605645e-08,-4.09452527054e-07,1.43979676373e-08,-4.87496649783e-07,-1.54090040412e-08,-5.86436048915e-07,-7.13831305187e-07,-1.65130445006e-08,8.80895829598e-07,-1.77208817521e-08,-1.10479700906e-06,1.90448518522e-08,-2.04990935983e-08,-1.41287598434e-06,-1.850868328e-06,2.20998773074e-08,2.50023525546e-06,3.51867139286e-06,-2.38659849303e-08,2.58191848751e-08,-5.24901605991e-06,2.79848123918e-08,-8.57713096143e-06,-3.03924854013e-08,1.65262151903e-05,-4.43275526686e-05,-3.30769777454e-08,8.73102423236e-05,-3.60793433202e-08,-4.75859332907e-05,-3.94482952693e-08,-2.73086997298e-05,-4.32419825421e-08,2.15757296851e-05,4.75302561191e-08,5.23976020407e-08,-5.79469767314e-08,-1.99125566671e-05,1.98156746606e-05,1.79534075342e-05,6.4304885095e-08,-1.47959203544e-05,7.16281894716e-08,-8.01133373329e-08,-1.24300448533e-05,9.00091616682e-08,-1.07245782444e-05,1.01634787614e-07,-9.51283853496e-06,-1.15405382916e-07,-8.68723697995e-06,1.31869847658e-07,8.17690157015e-06,1.51767515752e-07,-7.94457791272e-06,1.76115978899e-07,-7.98922851722e-06,-8.35826652237e-06,2.06351825683e-07,-9.18498159071e-06,-2.44565584519e-07,2.939133265e-07,1.08032891841e-05,3.59381659233e-07,4.49318763801e-07,1.41764702799e-05,-2.33799467629e-05,-9.95715401652e-05,-0.000345789851655,5.78803889752e-07,7.78073395574e-07,1.11780219258e-06,3.24677231221e-05,1.32935358191e-05,8.01154424664e-06,-3.91713602088e-06,-1.81023639308e-06,-5.58702076046e-06,-0.999999926311,-3.34959759314e-06,4.61727835082e-06,2.75901820438e-06,2.51590747693e-06,-1.83286060549e-06,2.33678704226e-06,1.50656491153e-06,-1.78716318163e-06,-1.60427820692e-06,2.02425822049e-06,-1.26515917087e-06,1.12653111188e-06,1.1158515217e-06,1.21812539708e-06,1.15602906812e-06,1.20063740072e-06,1.15482561249e-06,-1.35089235132e-06,4.21719187963e-06,1.46189132037e-06,1.32507392108e-06,-1.12441534304e-06,
-1.37715805804e-08,-4.36781747521e-07,1.47096274921e-08,-5.20179472993e-07,-1.57310496536e-08,-6.25931785483e-07,-7.62133490683e-07,-1.68451564435e-08,9.40792150945e-07,-1.8062528808e-08,-1.18029374537e-06,1.93952316517e-08,-2.08570585819e-08,-1.50992443108e-06,-1.97868011076e-06,2.24638366133e-08,2.6738402768e-06,3.76438230794e-06,-2.42337860685e-08,2.61879573214e-08,-5.6177121182e-06,2.83507661631e-08,-9.18324858753e-06,-3.07506499413e-08,1.77013166566e-05,-4.74984967839e-05,-3.34208706153e-08,9.35807707216e-05,-3.64005246544e-08,-5.10191258163e-05,-3.973578754e-08,-2.92923159062e-05,-4.34815037024e-08,2.315469012e-05,4.77031828079e-08,5.24795832587e-08,-5.79060361503e-08,-2.1381809441e-05,2.12916558532e-05,1.93051031754e-05,6.40988046717e-08,-1.59214073976e-05,7.12008582799e-08,-7.93895975411e-08,-1.33849396403e-05,8.88873859453e-08,-1.1556684288e-05,9.99760594429e-08,-1.02585194527e-05,-1.13017370817e-07,-9.37548424203e-06,1.28482264535e-07,8.83195331759e-06,1.46993821666e-07,-8.58846283566e-06,1.69391869052e-07,-8.64467964665e-06,-9.05284039643e-06,1.96833033969e-07,-9.95862096612e-06,-2.30951195494e-07,2.74125300569e-07,1.17262643318e-05,3.2994863382e-07,4.04101203112e-07,1.540593937e-05,-2.54399824883e-05,-0.000108491226306,-0.0003769155165,5.06095628911e-07,6.53119965689e-07,8.79647519113e-07,3.54300184313e-05,1.45295808152e-05,8.77168065843e-06,-2.05504727564e-06,-1.26627092394e-06,-6.12869953539e-06,-4.45693343047e-06,-3.69032469133e-06,-0.999999912743,3.04728830506e-06,5.27968752522e-06,-2.88471896852e-06,2.58811025692e-06,2.10770198423e-06,-1.99239589858e-06,-1.79552263489e-06,2.24890965227e-06,-1.43810211847e-06,1.31335802081e-06,1.31716864846e-06,1.5337541205e-06,1.41513548112e-06,1.37430420848e-06,1.33288149531e-06,-1.52646862586e-06,4.63563768669e-06,1.64346619625e-06,1.73793152923e-06,-1.34834544592e-06,
-1.41053526381e-08,-4.66615592114e-07,1.50562287466e-08,-5.55869377481e-07,-1.6090567965e-08,-6.6907631717e-07,-8.14917000479e-07,-1.72175507006e-08,1.00626996354e-06,-1.84475899073e-08,-1.26285793274e-06,1.97925330292e-08,-2.12658932913e-08,-1.61610109012e-06,-2.11857316708e-06,2.28831344151e-08,2.86393965404e-06,4.03356357779e-06,-2.46620129386e-08,2.6622983381e-08,-6.0218226071e-06,2.87896966693e-08,-9.84792339764e-06,-3.11896050031e-08,1.8990624539e-05,-5.09794278165e-05,-3.38547055447e-08,0.000100466681473,-3.68224567133e-08,-5.47907617485e-05,-4.01369188049e-08,-3.14727897011e-05,-4.38501745513e-08,2.489152364e-05,4.80241287654e-08,5.27327919869e-08,-5.80652083901e-08,-2.29991847957e-05,2.29178737631e-05,2.07959101697e-05,6.41292532856e-08,-1.71639692166e-05,7.10565904352e-08,-7.90092703214e-08,-1.44401972417e-05,8.81885277326e-08,-1.24771728282e-05,9.88468015583e-08,-1.10842743163e-05,-1.11304319818e-07,-1.01384910841e-05,1.25972428401e-07,9.5590247058e-06,1.43387054593e-07,-9.30405037307e-06,1.6425779734e-07,-9.37411608624e-06,-9.8269493951e-06,1.89541787675e-07,-1.08222108145e-05,-2.20558134904e-07,2.5917145915e-07,1.27583089734e-05,3.08098343746e-07,3.71444347534e-07,1.67832311791e-05,-2.77523124647e-05,-0.000118524750733,-0.000411950167697,4.55702447552e-07,5.71751473562e-07,7.39255011302e-07,3.87703620915e-05,1.59269864472e-05,9.63350658463e-06,-1.43921728964e-06,-9.97662289263e-07,-6.74478084222e-06,-2.34100649098e-06,-4.08072036052e-06,-5.08931983134e-06,3.37901746072e-06,-0.999999896129,-6.06080678193e-06,2.87873778289e-06,3.32121155148e-06,-2.23254416097e-06,-2.02092309297e-06,2.51013260957e-06,-1.64806350014e-06,1.55214149973e-06,1.58135362789e-06,2.01400949379e-06,1.78391836302e-06,1.58807575224e-06,1.5557674586e-06,-1.7371833113e-06,5.11322313439e-06,1.85926428614e-06,2.43426160865e-06,-1.65250827899e-06,
-1.44742011894e-08,-4.99249650768e-07,1.54402860095e-08,-5.94922490162e-07,-1.64901603533e-08,-7.16303343387e-07,-8.72716518205e-07,-1.76329111961e-08,1.07799787006e-06,-1.88788241127e-08,-1.35333970675e-06,2.02395774927e-08,-2.17284639246e-08,-1.73250878018e-06,-2.27201377272e-06,2.3360657021e-08,3.07254488165e-06,4.32909184518e-06,-2.51535381776e-08,2.71270746343e-08,-6.46571104451e-06,2.93042876214e-08,-1.05784103753e-05,-3.17118176069e-08,2.04083701079e-05,-5.480919325e-05,-3.43806113373e-08,0.000108045387346,-3.73467670199e-08,-5.89436039651e-05,-4.06525817776e-08,-3.38751596889e-05,-4.43478442692e-08,2.68064605213e-05,4.84914587442e-08,5.31535014175e-08,-5.84178210032e-08,-2.478382218e-05,2.4713931633e-05,2.24441871646e-05,6.43853870945e-08,-1.85392288978e-05,7.11786251707e-08,-7.89470989534e-08,-1.56093570284e-05,8.78750364387e-08,-1.34981008714e-05,9.81914230828e-08,-1.20011553587e-05,-1.1018376391e-07,-1.09867049503e-05,1.24217075717e-07,1.03683138653e-05,1.40760643489e-07,-1.01016375272e-05,1.60426399301e-07,-1.01883234563e-05,-1.06923760806e-05,1.84025238525e-07,-1.17893081993e-05,-2.12651789682e-07,2.4781581232e-07,1.39161684569e-05,2.91652968521e-07,3.47276793808e-07,1.83314961251e-05,-3.035730124e-05,-0.000129854404905,-0.000451537839334,4.19395681852e-07,5.15460099594e-07,6.47959100301e-07,4.25522291774e-05,1.75135831294e-05,1.06150801913e-05,-1.13533044656e-06,-8.39475719311e-07,-7.44890277513e-06,-1.64152002475e-06,-4.53056959189e-06,-2.67648813507e-06,3.76312654776e-06,-5.83355733448e-06,0.999999875652,3.21710919478e-06,6.98654803781e-06,-2.5159266684e-06,-2.28912311082e-06,2.8161780607e-06,-1.90678304599e-06,1.86576923974e-06,1.94048584136e-06,2.82445804686e-06,2.34541533996e-06,1.85593756102e-06,1.84090707407e-06,-1.99328256973e-06,5.66116905528e-06,2.11854601309e-06,3.84055193699e-06,-2.08573730451e-06,
-1.4880942887e-08,-5.35022656689e-07,1.58647327225e-08,-6.37747076071e-07,-1.69328778498e-08,-7.68110263442e-07,-9.36145526836e-07,-1.80944044556e-08,1.15674336211e-06,-1.93595093619e-08,-1.45271541752e-06,2.07397492936e-08,-2.22482497827e-08,-1.86041470511e-06,-2.44068768526e-06,2.38999617767e-08,3.3019698952e-06,4.65427831773e-06,-2.57119722338e-08,2.7703859535e-08,-6.95440342596e-06,2.98981396796e-08,-1.13830717913e-05,-3.23207908102e-08,2.19709687249e-05,-5.9032635488e-05,-3.50018992593e-08,0.000116406291766,-3.79764473886e-08,-6.35270677237e-05,-4.12852722529e-08,-3.65283851681e-05,-4.4976262928e-08,2.89229225055e-05,4.91058454586e-08,5.37408336397e-08,-5.89607810113e-08,-2.67579058622e-05,2.67025825015e-05,2.4271277294e-05,6.48609699872e-08,-2.0065378874e-05,7.15562366799e-08,-7.91859554022e-08,-1.69082106601e-05,8.79205519078e-08,-1.46335550439e-05,9.79701437009e-08,-1.30220987969e-05,-1.09596151212e-07,-1.19323782202e-05,1.23127098683e-07,1.12718063221e-05,1.38980477685e-07,-1.09933541697e-05,1.57693538805e-07,-1.11000394919e-05,-1.16630742611e-05,1.79967460388e-07,-1.28760174179e-05,-2.06732245424e-07,2.39244377711e-07,1.52198011568e-05,2.79238314631e-07,3.29169478461e-07,2.00784286882e-05,-3.33034334705e-05,-0.00014270012774,-0.000496456609939,3.92620279173e-07,4.7501181063e-07,5.84927595706e-07,4.68526002738e-05,1.93233118243e-05,1.17385629201e-05,-9.5656312973e-07,-7.36763692977e-07,-8.2579204267e-06,-1.2966085607e-06,-5.05217130799e-06,-1.87921164388e-06,4.21094300163e-06,-3.07189211808e-06,6.71368088945e-06,3.61406595372e-06,-0.999999850234,-2.85354120062e-06,-2.6117567395e-06,3.17778745038e-06,-2.23131158364e-06,2.29248340202e-06,2.45241092055e-06,4.4619879148e-06,3.29351919487e-06,2.19896002751e-06,2.21577305185e-06,-2.30920773691e-06,6.29345335042e-06,2.43404115773e-06,8.08959484595e-06,-2.74581454597e-06,
-1.53288406511e-08,-5.74324059985e-07,1.63329769022e-08,-6.84812716161e-07,-1.7422277654e-08,-8.25069421858e-07,-1.00591026166e-06,-1.86057392316e-08,1.24339038732e-06,-1.98935078153e-08,-1.56211012842e-06,2.12970599179e-08,-2.28294079728e-08,-2.00127985941e-06,-2.62653956491e-06,2.45053423221e-08,3.55488561038e-06,5.01294748385e-06,-2.63417300149e-08,2.83578514148e-08,-7.49370879158e-06,3.05758282538e-08,-1.22715797361e-05,-3.30211137533e-08,2.36974214608e-05,-6.37017001245e-05,-3.57231049471e-08,0.000125653013553,-3.87158769818e-08,-6.85984601949e-05,-4.20390810904e-08,-3.94660814653e-05,-4.57390488265e-08,3.12681258e-05,4.9870163843e-08,5.44965591993e-08,-5.96942487882e-08,-2.89472451137e-05,2.89103355104e-05,2.6302089635e-05,6.55538277156e-08,-2.17636875802e-05,7.21839026223e-08,-7.97155051116e-08,-1.83552516065e-05,8.83078139582e-08,-1.59000618157e-05,9.81556663432e-08,-1.41623107926e-05,-1.09499524003e-07,-1.29899433854e-05,1.22638855113e-07,1.22836524122e-05,1.37950376515e-07,-1.19935567056e-05,1.55913312602e-07,-1.21243811419e-05,-1.27556536734e-05,1.77144957577e-07,-1.41015711655e-05,-2.02451765553e-07,2.32904385089e-07,1.66931291695e-05,2.69950711188e-07,3.15591216909e-07,2.20573568772e-05,-3.66493162358e-05,-0.000157329073083,-0.000547652973004,3.72660424067e-07,4.45297159065e-07,5.39769342636e-07,5.17655134532e-05,2.13978904989e-05,1.30313838122e-05,-8.40679526807e-07,-6.6600806781e-07,-9.19285912077e-06,-1.09394877977e-06,-5.66116062945e-06,-1.4863981774e-06,4.73703368654e-06,-2.15979795709e-06,3.54021884258e-06,4.08373570116e-06,-7.75988996624e-06,-3.26020205193e-06,-3.00482738574e-06,3.60917398458e-06,-2.64734764159e-06,2.90125399552e-06,3.23296968141e-06,9.41149390565e-06,5.21015119706e-06,2.65037621146e-06,2.72627920064e-06,-2.7059434942e-06,7.02766744419e-06,2.82370183336e-06,-0.999999818444,-3.86107695551e-06,
-1.58216682391e-08,-6.17603169028e-07,1.68489704548e-08,-7.36661389068e-07,-1.79624958788e-08,-8.8784169249e-07,-1.08282657352e-06,-1.9171241941e-08,1.33896058991e-06,-2.04853397367e-08,-1.68282483169e-06,2.19162289187e-08,-2.34768572923e-08,-2.15679462805e-06,-2.83182071466e-06,2.5181914273e-08,3.83438603296e-06,5.40953258435e-06,-2.70481159922e-08,2.90945320465e-08,-8.09036557221e-06,3.13429909791e-08,-1.32551621709e-05,-3.38185466148e-08,2.56098034512e-05,-6.88767848158e-05,-3.65500600149e-08,0.00013590609634,-3.95708934476e-08,-7.42244911754e-05,-4.29197454852e-08,-4.27274171343e-05,-4.66416979901e-08,3.38738178387e-05,5.07894739891e-08,5.54250186982e-08,-6.06214521602e-08,-3.13819841942e-05,3.13681992733e-05,2.8565813751e-05,6.64655302273e-08,-2.36591235493e-05,7.30607523526e-08,-8.05313231444e-08,-1.99722302046e-05,8.90272446676e-08,-1.73170953438e-05,9.87309374883e-08,-1.54397465864e-05,-1.09865927661e-07,-1.41764802356e-05,1.2270836688e-07,1.34206388615e-05,1.37602553303e-07,-1.31193218145e-05,1.54982065944e-07,-1.32793824971e-05,-1.39899932829e-05,1.75399057897e-07,-1.54890697483e-05,-1.99565532333e-07,2.28412659798e-07,1.83649986855e-05,2.63177987209e-07,3.05536812129e-07,2.43086450231e-05,-4.04662758543e-05,-0.000174068116793,-0.000606286875715,3.57806131302e-07,4.23272090682e-07,5.06737320818e-07,5.74067510188e-05,2.37890354573e-05,1.4527809398e-05,-7.61045997602e-07,-6.15481144588e-07,-1.0280216402e-05,-9.62815317352e-07,-6.37766776997e-06,-1.25589241492e-06,5.36040119061e-06,-1.71080996688e-06,2.49267981971e-06,4.6448302448e-06,-4.09783392479e-06,-3.75630235597e-06,-3.49091811951e-06,4.12949950661e-06,-3.19543784179e-06,3.83021694206e-06,4.55269060222e-06,-0.999999778356,1.10055064749e-05,3.26574140775e-06,3.4552470006e-06,-3.21513110141e-06,7.88620339886e-06,3.31362811688e-06,-9.01041037857e-06,-6.11685091073e-06,
-1.6363790401e-08,-6.65380236664e-07,1.74172912836e-08,-7.93920915283e-07,-1.85583341169e-08,-9.57192964642e-07,-1.16784040269e-06,-1.97959471155e-08,1.44463911494e-06,-2.11402820242e-08,-1.81636953285e-06,2.26027831375e-08,-2.41963807063e-08,-2.32892208127e-06,-3.05914718888e-06,2.59357220484e-08,4.14406876382e-06,5.84919197766e-06,-2.78374381851e-08,2.99204686251e-08,-8.75222010109e-06,3.22064442473e-08,-1.43469033139e-05,-3.47201367277e-08,2.77338606618e-05,-7.46283891652e-05,-3.74900142913e-08,0.000147306324805,-4.05488963853e-08,-8.04831235869e-05,-4.39347510402e-08,-4.63582142846e-05,-4.76916738881e-08,3.67771821151e-05,5.18710717125e-08,5.65331321862e-08,-6.17486387735e-08,-3.40974757266e-05,3.41125981503e-05,3.10968025768e-05,6.76012306007e-08,-2.5781128477e-05,7.41902522144e-08,-8.16343419012e-08,-2.17848429622e-05,9.00760326123e-08,-1.89077098583e-05,9.96876469671e-08,-1.68757089379e-05,-1.10678992841e-07,-1.55123013009e-05,1.2330743138e-07,1.47027818917e-05,1.37891300538e-07,-1.43910699655e-05,1.54827939858e-07,-1.45866771768e-05,-1.5390023222e-05,1.7461831373e-07,-1.70664288775e-05,-1.97901133796e-07,2.25500973589e-07,2.02704191302e-05,2.58497501782e-07,2.98327239341e-07,2.68815165784e-05,-4.48417590064e-05,-0.000193320381615,-0.000673791383456,3.46937062288e-07,4.07022509979e-07,4.82410647635e-07,6.39200959162e-05,2.65614602322e-05,1.62710903926e-05,-7.04385578182e-07,-5.78700315597e-07,-1.15537684308e-05,-8.72946674792e-07,-7.22798367226e-06,-1.10703851802e-06,6.1062407713e-06,-1.44771592094e-06,1.97751352698e-06,5.32260003332e-06,-2.88971555709e-06,-4.37063998736e-06,-4.10288122218e-06,4.76516358586e-06,-3.94338325975e-06,5.40199623816e-06,7.22357269153e-06,-1.0514014911e-05,-0.999999727352,4.14528995561e-06,4.56857844496e-06,-3.88671263979e-06,8.89792829814e-06,3.94319339463e-06,-4.765493703e-06,-1.29405381441e-05,
-1.69602591221e-08,-7.1825996937e-07,1.80432460822e-08,-8.57321347958e-07,-1.92153660655e-08,-1.03401425227e-06,-1.26205276751e-06,-2.04857095192e-08,1.56180611476e-06,-2.18644843642e-08,-1.96450366756e-06,2.3363179411e-08,-2.49947570977e-08,-2.5199508997e-06,-3.31157086734e-06,2.67738746623e-08,4.48813355052e-06,6.33795168507e-06,-2.87171464115e-08,3.08434584863e-08,-9.48844547816e-06,3.31743341004e-08,-1.55621122654e-05,-3.57343748092e-08,3.00997429298e-05,-8.10391433882e-05,-3.85517885424e-08,0.000160018805038,-4.1659012137e-08,-8.74658522231e-05,-4.50934829994e-08,-5.04123052573e-05,-4.88985544154e-08,4.00219554669e-05,5.31246227292e-08,5.78305036532e-08,-6.30851316619e-08,-3.713536099e-05,3.71865079817e-05,3.39356695967e-05,6.89696594981e-08,-2.81645804593e-05,7.55800889192e-08,-8.30305718169e-08,-2.38235937704e-05,9.14575859814e-08,-2.069933208e-05,1.0102528567e-07,-1.84956003972e-05,-1.11932370933e-07,-1.70216903939e-05,1.24421044897e-07,1.61540783813e-05,1.38788783083e-07,-1.58333585509e-05,1.55403979199e-07,-1.60723706196e-05,-1.69847298231e-05,1.74727032986e-07,-1.88676053829e-05,-1.97339143188e-07,2.23982245781e-07,2.24521767473e-05,2.55615405466e-07,2.93495958334e-07,2.98364461859e-05,-4.98838350966e-05,-0.000215587325447,-0.000751952665735,3.3929893055e-07,3.95297226436e-07,4.64641618396e-07,7.14857906408e-05,2.97969815602e-05,1.83164432745e-05,-6.6336392274e-07,-5.5181072751e-07,-1.30571202139e-05,-8.09263014065e-07,-8.24700782606e-06,-1.00533288364e-06,7.00858720215e-06,-1.27819195027e-06,1.67611372163e-06,6.15186464263e-06,-2.29620427269e-06,-5.14513566897e-06,-4.89030293682e-06,5.55347513733e-06,-5.01354164077e-06,8.58501055233e-06,1.53066257189e-05,-5.56973645837e-06,-1.23334701504e-05,5.48983679511e-06,6.45378599448e-06,-4.80422737763e-06,1.01005926917e-05,4.77457070282e-06,-3.36597706324e-06,0.999999661832,
-1.76169322079e-08,-7.76948078292e-07,1.87329934527e-08,-9.27715060562e-07,-1.9940068842e-08,-1.11934635242e-06,-1.3667504176e-06,-2.12473425131e-08,1.69207542196e-06,-2.26651136477e-08,-2.12928573874e-06,2.42049583306e-08,-2.58799172924e-08,-2.73256041562e-06,-3.5926668608e-06,2.77047137145e-08,4.87150356699e-06,6.882880956e-06,-2.96960099278e-08,3.18727125186e-08,-1.03098113613e-05,3.42563283718e-08,-1.69187778323e-05,-3.68713943541e-08,3.27429093393e-05,-8.82063165159e-05,-3.974598204e-08,0.000174238013025,-4.29123026987e-08,-9.52805255531e-05,-4.64074435271e-08,-5.49532148361e-05,-5.02742453719e-08,4.36598155868e-05,5.45623730647e-08,5.93296175147e-08,-6.46435005294e-08,-4.05449139129e-05,4.06408722077e-05,3.71306605982e-05,7.05832491592e-08,-3.08510016911e-05,7.72422311945e-08,-8.47310360967e-08,-2.61248768049e-05,9.31813070595e-08,-2.27247607231e-05,1.02750633724e-07,-2.03298754294e-05,-1.13628788528e-07,-1.87338409207e-05,1.26045773271e-07,1.78034642681e-05,1.40282306619e-07,-1.74758986556e-05,1.56683609157e-07,-1.77681642889e-05,-1.88094586643e-05,1.75677781474e-07,-2.0934197084e-05,-1.97800543671e-07,2.23729105541e-07,2.49629567339e-05,2.54329144873e-07,2.90721220886e-07,3.32483326371e-05,-5.57272262859e-05,-0.000241498644163,-0.000843018634536,3.34376416179e-07,3.87257195395e-07,4.52030128439e-07,8.03321359001e-05,3.36002293646e-05,2.07352641394e-05,-6.33624855498e-07,-5.32396623275e-07,-1.48473771525e-05,-7.63440197058e-07,-9.48193815435e-06,-9.33589162537e-07,8.114420826e-06,-1.1627522039e-06,1.48238207868e-06,7.18187537995e-06,-1.94956847949e-06,-6.14310157396e-06,-5.93152076848e-06,6.54878429404e-06,-6.65109595946e-06,1.82227057335e-05,-0.999999576771,-3.94077762975e-06,-6.54478897482e-06,7.76849727107e-06,1.02741364787e-05,-6.11847573237e-06,1.15443726726e-05,5.91179672096e-06,-2.67923342035e-06,1.45503068332e-05,
-1.83406174208e-08,-8.42271667131e-07,1.94936965096e-08,-1.0061015065e-06,-2.07399823084e-08,-1.21441024671e-06,-1.48344364747e-06,-2.20887850253e-08,1.83734228173e-06,-2.35505323159e-08,-2.3131346222e-06,2.51369291233e-08,-2.68611438628e-08,-2.96990099136e-06,-3.90664160317e-06,2.87380201329e-08,5.29997550971e-06,7.49230972663e-06,-3.07843342014e-08,3.30190870428e-08,-1.12290184366e-05,3.54638586989e-08,-1.84381329416e-05,-3.81432232116e-08,3.57052529274e-05,-9.62449355782e-05,-4.10852390178e-08,0.000190194077588,-4.43220398772e-08,-0.000104054860631,-4.78905376622e-08,-6.00562585417e-05,-5.18332749649e-08,4.77521145474e-05,5.61994426633e-08,6.10461331118e-08,-6.64398532646e-08,-4.43847234078e-05,4.45363786386e-05,4.0739379754e-05,7.24583970143e-08,-3.38900826525e-05,7.91931452073e-08,-8.67519303544e-08,-2.87323474465e-05,9.52626169739e-08,-2.5023436064e-05,1.04877611273e-07,-2.24152542681e-05,-1.15779592598e-07,-2.06840570338e-05,1.28188829059e-07,1.9686047062e-05,1.42372646489e-07,-1.93548693865e-05,1.58657760393e-07,-1.97128173205e-05,-2.09076198379e-05,1.77446521595e-07,-2.33175520111e-05,-1.99238579425e-07,2.24660101621e-07,2.78681644395e-05,2.54503783222e-07,2.89784439137e-07,3.72107571115e-05,-6.25414872509e-05,-0.000271853325127,-0.000949848640308,3.31817638823e-07,3.82333074003e-07,4.43641670049e-07,9.07516440014e-05,3.81067265886e-05,2.36212016188e-05,-6.12444276838e-07,-5.18888195509e-07,-1.70005494081e-05,-7.30541007632e-07,-1.0997998241e-05,-8.82328600794e-07,9.49025864814e-06,-1.08173857565e-06,1.35095374367e-06,8.48443864615e-06,-1.72736614191e-06,-7.46461395958e-06,-7.35767468139e-06,7.83323084114e-06,-9.42888294031e-06,-0.999999465054,-1.72715067933e-05,-3.14246613975e-06,-4.63908445259e-06,1.23896022318e-05,2.18477857298e-05,-8.13169768014e-06,1.32972128942e-05,7.54272981611e-06,-2.27891313668e-06,7.73521125843e-06,
-1.91392497912e-08,-9.15204494713e-07,2.03337098833e-08,-1.09365790636e-06,-2.16239066915e-08,-1.32064480836e-06,-1.61391322245e-06,-2.3019310553e-08,1.99984261695e-06,-2.4530516326e-08,-2.51890572499e-06,2.61694021978e-08,-2.79493132325e-08,-3.23569394186e-06,-4.25846732049e-06,2.9885271988e-08,5.78040647103e-06,8.17609959041e-06,-3.19942328402e-08,3.42953684274e-08,-1.22611155749e-05,3.68104204611e-08,-2.0145359303e-05,-3.9564103089e-08,3.90365064032e-05,-0.000105291688524,-4.25845825948e-08,0.000208160648107,-4.59040583807e-08,-0.00011394084868,-4.95594397058e-08,-6.58111764431e-05,-5.35931735248e-08,5.23720584471e-05,5.8054227267e-08,6.29992931551e-08,-6.84942358341e-08,-4.87248128975e-05,4.89457035189e-05,4.48309763352e-05,7.4615880362e-08,-3.73416192204e-05,8.14541897554e-08,-8.91149735372e-08,-3.16986703538e-05,9.77232475332e-08,-2.76430645907e-05,1.07427446503e-07,-2.47962824254e-05,-1.18404729979e-07,-2.29153036963e-05,1.30867732556e-07,2.18447043085e-05,1.45073205007e-07,-2.15146320353e-05,1.61333194735e-07,-2.19540649435e-05,-2.33329422343e-05,1.80029631805e-07,-2.60815794631e-05,-2.01633572726e-07,2.26730873309e-07,3.1249720186e-05,2.56056887939e-07,2.90544009837e-07,4.18417714936e-05,-7.05422580599e-05,-0.00030767689115,-0.00107612306614,3.31387827235e-07,3.80140770663e-07,4.38847327122e-07,0.000103123929671,4.34945476513e-05,2.70991048251e-05,-5.98058729841e-07,-5.10243514481e-07,-1.96197106106e-05,-7.07485808394e-07,-1.28876352431e-05,-8.45938306725e-07,1.123316933e-05,-1.02431994052e-06,1.25925702505e-06,1.01681589295e-05,-1.57726072706e-06,-9.27728346586e-06,-9.40564526496e-06,9.53673104683e-06,-1.50667574051e-05,-2.06390110153e-05,-9.19961303738e-06,-2.67809888236e-06,-3.70646379538e-06,2.63972860417e-05,-0.999999316442,-1.15501413107e-05,1.54531250876e-05,1.00439724806e-05,-2.02307717649e-06,5.49348211747e-06,
-2.00221110799e-08,-9.96898471426e-07,2.126281022e-08,-1.19177753124e-06,-2.2602145406e-08,-1.43975385666e-06,-1.76026896581e-06,-2.40497834178e-08,2.18222706819e-06,-2.56165271371e-08,-2.74998619527e-06,2.73144742649e-08,-2.91571991048e-08,-3.5343565315e-06,-4.65405037536e-06,3.11599627757e-08,6.32094806942e-06,8.94598358943e-06,-3.33399658987e-08,3.57166311948e-08,-1.34240234546e-05,3.83119520092e-08,-2.20704728253e-05,-4.11508864169e-08,4.27960104663e-05,-0.000115509839668,-4.42618339267e-08,0.000228464811421,-4.76771997035e-08,-0.000125120313521,-5.1434060629e-08,-7.23254612363e-05,-5.55749690335e-08,5.76074665561e-05,6.01489097264e-08,6.52124614416e-08,-7.08312044282e-08,-5.36493290154e-05,5.39563656856e-05,4.94889349941e-05,7.70814208681e-08,-4.12779928662e-05,8.40521940971e-08,-9.18479779097e-08,-3.50877655715e-05,1.00591782616e-07,-3.06417145703e-05,1.10429147733e-07,-2.75273508971e-05,-1.2153310575e-07,-2.54802242933e-05,1.34110473398e-07,2.43321755344e-05,1.48409835572e-07,-2.40099872294e-05,1.64731806259e-07,-2.45511622203e-05,-2.61524863391e-05,1.83442302397e-07,-2.93065408862e-05,-2.0498988475e-07,2.29928681768e-07,3.52112296862e-05,2.58949008566e-07,2.92918789984e-07,4.72918780984e-05,-8.00069874014e-05,-0.000350302612581,-0.00122664207108,3.32940401343e-07,3.8042987326e-07,4.37229164717e-07,0.0001179487868,5.00015161232e-05,3.13385443519e-05,-5.89305670164e-07,-5.05768414648e-07,-2.28476790359e-05,-6.92290017706e-07,-1.52858980222e-05,-8.20927694889e-07,1.34900921583e-05,-9.84095050085e-07,1.19487034071e-06,1.2404929427e-05,-1.47322975572e-06,-1.18839876514e-05,-1.25504396735e-05,1.18769890498e-05,-3.21674138442e-05,-1.10159505353e-05,-6.54693998476e-06,-2.38234355472e-06,-3.16525632377e-06,-0.999999115923,-2.48434494537e-05,-1.84944112701e-05,1.81455230465e-05,1.42956875671e-05,-1.8510776265e-06,4.3981329859e-06,
